{"conv_filters":{"v":1,"dim":[8,1,3,3],"data":[0.7544692,1.0564941,0.41909972,0.71867424,0.28303352,-0.6984128,0.18770152,-0.47608337,0.26893795,0.010285298,-0.09446272,0.60239995,0.20259792,-0.14375417,-0.9299475,0.33977765,0.5408995,0.24864143,0.3773888,-0.047635965,0.06634923,-0.2359336,-0.22714554,0.83583486,-0.5200779,-0.31060657,0.053676303,-0.4354945,0.41079915,-0.59179735,1.1945677,0.5318015,-0.20035361,0.75732464,0.27343038,0.43476433,0.9277423,0.38744426,0.8525036,0.43968305,-0.82961625,0.51454246,-0.07781338,-0.055650223,0.95399964,0.15457915,-0.1686848,0.07585807,0.36951864,0.35276547,-0.726693,-0.0579483,1.0749654,-0.34528333,0.6292937,-0.046853587,-0.585468,0.64558476,0.6373816,-0.2864548,0.24190438,-0.39403293,0.12477924,0.059884835,-0.061250314,0.6918299,-0.15252277,0.34721333,0.2822846,-0.3588461,-0.17795071,0.43073982]},"conv_biases":{"v":1,"dim":[8],"data":[-0.83574134,-0.60980946,-0.5115478,0.40553504,-0.14108951,0.49119258,-0.6019649,-0.715292]},"fc_weights":{"v":1,"dim":[10,1352],"data":[0.8027143,0.16557042,0.21157105,-0.071720764,0.68364614,-0.03106403,-0.89593893,0.30283183,-0.1974876,0.5253045,0.08422666,-0.55447185,0.8577456,0.54904854,0.62954605,-0.5064242,0.5397733,0.7259269,-0.65381366,0.7581538,0.6891513,0.9531964,-0.9586141,-0.53664535,0.61885333,0.529571,0.41741538,0.6406725,-0.7057978,-0.6672878,0.3835466,0.9336369,-0.042126127,-0.526887,-0.4194486,-0.2426389,0.1483576,-0.6510181,0.17236345,-0.36464617,-0.3139132,0.2553112,-0.54293126,0.8452449,-0.6433805,0.42252818,-0.48402295,-0.9190169,-0.9074348,-0.8212355,0.07430305,-0.73848367,-0.36085632,0.55377567,-0.9976001,0.10518936,-0.6871402,-0.57225585,0.2712846,-0.23587146,0.0020067748,0.16552363,-0.30302197,-0.4961887,-0.5917601,0.7823081,-0.9069615,-0.32089394,0.20005855,-0.5492749,0.5375426,-0.8833796,-0.6480278,0.054528456,-0.092800684,-0.12849043,-0.12431504,-0.9674978,0.31328237,0.60554427,-0.5394515,-0.99795955,0.9641324,-0.96503,0.0014707881,0.30024597,-0.27120027,0.86450046,-0.7174559,-0.40125358,0.81233364,0.111327335,0.47603205,-0.63340265,-0.044596765,-0.77484846,-0.8052054,0.077116095,0.24571386,0.3089645,0.7926549,-0.5576441,-0.5786017,0.97694904,0.5783098,0.97148407,0.8124778,0.4580672,0.4215891,-0.07082349,-0.6181923,-0.33928165,0.033124804,-0.24795079,0.16910844,-0.48253304,-0.7383366,-0.93068725,-0.3267995,0.40700352,-0.6772155,-0.03829437,0.030660259,-0.25079608,0.85838455,-0.52362967,0.8762932,0.4749831,0.096150845,-0.66111666,0.01849592,-0.5586316,0.6986445,0.7619309,0.052984495,0.4409073,-0.097911365,-0.722105,-0.89808774,-0.01426885,0.6792695,-0.8521269,-0.54174364,0.15935487,-0.48194772,-0.9972321,0.23811732,-0.5475366,-0.8605457,0.42638996,-0.8126163,-0.34837267,-0.37729406,0.39638647,0.76870203,0.4847296,-0.80135113,0.082449906,-0.62153375,-0.30282423,0.5092668,-0.006494779,0.13604918,-0.83283985,0.18141708,0.23023976,-0.3705794,0.38825896,-0.8123942,-0.40795326,0.7655582,-0.024917288,-0.6425316,0.7313814,-0.40307897,-0.27300248,0.5427087,0.47412542,-0.9966703,-0.5809335,-0.87628764,-0.53832084,-0.32432583,-0.64028907,0.1795523,0.27669543,-0.28251112,0.5498235,-0.4599402,0.8532425,-0.0719179,0.44912285,0.72388804,-0.5897172,-0.7872579,0.9465898,-0.42524394,-0.23891056,-0.07514491,0.19824556,0.92473656,-0.8866306,-0.3236047,-0.34966645,-0.21292815,-0.5090685,-0.76440054,0.597921,-0.09547654,0.4015258,0.3848563,0.9154057,0.4762059,0.62320215,0.2568952,-0.05122651,0.00892717,-0.7372083,0.7924435,0.36347994,-0.0009996475,-0.59599316,-0.45807233,-0.7340799,-0.6308108,-0.9350006,-0.13989936,0.29265058,0.30918145,0.71868616,0.8968062,-0.35946923,-0.4655906,0.7866545,-0.1368287,0.9613221,-0.8713737,0.7749321,0.48085892,0.2619939,-0.075213894,-0.36741033,0.42388198,0.44187966,0.18163043,-1.0001744,0.5202733,-0.67914826,-0.026291514,-0.6332366,-0.2661588,-0.45619702,0.7311808,-0.8044987,0.692031,-0.20312615,0.2960152,-0.8559068,-0.30639932,-0.42675906,-0.3559272,0.15422313,0.6516482,-0.8358241,-0.66950494,0.43995667,-0.78216213,-0.27672657,-0.17533284,-0.87698203,-0.67802835,-0.7366164,-0.08876351,-0.67160666,-0.283155,-0.053418797,0.3085695,-0.7502673,0.60040253,0.80589855,-0.7524698,0.43540728,-0.34317902,-0.56815225,-0.65154535,-0.1598168,0.0038835004,-0.5900086,0.58711386,-0.9622252,-0.2803243,-0.7853898,0.7546268,0.3233414,0.028230214,-0.08745378,-0.06170212,-0.194833,0.059150696,0.8474216,-0.7743593,0.9860976,0.84477377,-0.73827964,0.54194105,0.20051725,-0.4483028,-0.23833777,0.2346058,-0.22121485,-0.33108994,-0.21130893,-0.06944675,0.8082444,0.73954767,0.89589465,-0.29798615,-0.16856836,-0.6909648,0.5705731,-0.5229613,-0.1192797,0.6477417,-0.81579566,0.61210597,0.6446127,0.23640756,-0.17947221,-0.3248298,-0.31052023,-0.7693326,-0.7193168,0.83585674,0.23757905,0.94489086,-0.9255998,-0.266119,0.6328942,0.87578773,-0.11748472,-0.7539354,-0.43937472,0.44122002,0.21346469,-0.62938297,-0.17341402,0.065873235,0.43809694,-0.9764013,-0.34888995,-0.5901356,-0.3207191,0.7135052,0.21063681,0.9864551,0.30309102,0.74550724,0.7944421,-0.6378312,0.37290993,0.37787622,-0.5640638,-0.6557213,-0.5765767,0.007676575,0.8751573,-0.70781446,0.47818854,-0.16988339,-0.7097726,0.96466285,0.8587416,0.058306612,0.38627142,-0.40968433,0.77231133,0.574158,0.5740561,-0.58663166,0.4450331,0.16403241,-0.5529236,-0.9360546,-0.63534456,-0.5374108,-0.9938698,0.86993706,0.2763019,-0.33282006,0.4684432,-0.19147709,0.9663479,0.53335214,0.061726846,-0.010131984,0.21841328,0.25273028,0.5495514,-0.30353376,-0.047335193,-0.860068,-0.8618637,0.55385447,-0.40070358,-0.11392071,0.8382009,-0.9777766,-0.95979583,0.43291897,0.3998595,-0.24748543,-0.60135466,0.5428067,0.35733974,0.2767289,0.41024345,0.10764718,0.048427727,0.1100115,-0.11761582,0.9700137,-0.9795526,-0.19309703,-0.52364635,-0.11193876,0.49404004,0.99173486,-0.066283494,-0.070268676,0.8786706,0.50994414,-0.02272508,0.4335676,-0.48976916,-0.7301546,-0.75725913,-0.74493045,-0.2658638,-0.070797235,-0.14863886,0.4118898,0.4198182,-0.9885182,-0.11493319,0.84084076,-0.76760215,-0.32677844,0.63429165,0.6373327,0.67263955,-0.8385098,-0.08706724,0.81652105,-0.492765,0.22666962,-0.6783972,0.60875744,0.2976515,-0.08487447,0.8892936,0.6994158,0.5544039,-0.06339998,-0.5086297,0.6766555,-0.80400604,-0.1823825,-0.055925462,-0.34010524,0.16485706,-0.45879686,0.05784077,0.8445568,-0.95905405,-0.8382183,0.899522,0.721538,0.58370805,0.7228577,-0.69301224,0.23555817,-0.12002674,0.4852671,-0.6038118,0.2910645,-0.5489141,0.17823942,0.8543148,-0.72554314,-0.69567096,0.6309351,-0.13728471,-0.8277048,-0.8593589,0.5105691,0.09030822,-0.5049274,-0.42930186,-0.72601557,0.851435,0.22487497,0.47319952,-0.3369414,-0.3125002,-0.07995523,-0.7316268,-0.52680254,0.0016740337,0.18269642,-0.5431219,0.06784676,0.82562536,-0.7861926,0.39144793,0.36986294,-0.06089214,-0.75701183,0.7732275,-0.91823107,-0.9977082,-0.41227582,-0.06337566,0.25640947,0.1415421,0.3493414,0.12365563,0.8214063,-0.13903072,0.61643916,0.9523264,0.89145696,0.88682926,0.9742266,0.069433965,-0.7494497,-0.698424,-0.9185215,0.03693688,-0.59569246,0.076470636,-0.5360619,-0.318806,0.67640597,0.03791874,-0.06792453,0.5042218,-0.459725,-0.3671188,0.90963066,0.58249885,-0.99525726,-0.8722848,-0.9440784,0.058242932,0.76045144,0.63020235,0.40444648,0.5914112,0.4066979,0.4394345,-0.8272143,0.6762328,0.08496495,-0.57097083,0.53023267,-0.8551425,0.27139732,-0.2798101,0.8076998,0.29638663,0.23468292,-0.5335504,0.50889415,0.09053974,0.8160368,0.17420903,0.3297633,-0.5015392,-0.51917976,0.1729324,-0.5420647,0.3495255,0.5307135,-0.531798,-0.73833025,-0.2492672,-0.50421387,0.2891917,0.22140908,0.010290677,0.90436983,0.6949358,0.8096637,-0.27596372,0.42408177,-0.5813446,-0.4512336,0.7168626,-0.4570606,-0.09726884,-0.9238419,-0.50018585,-0.7167369,-0.45936516,0.25485146,0.9453598,-0.9974346,-0.48479787,0.47401363,0.63917226,0.2835838,0.84188825,0.26288408,0.3755188,-0.42845044,-1.0024811,0.25668478,-0.034237362,-0.22130074,-0.8170205,0.10416604,-0.43992752,-0.3344528,-0.9836774,0.8603552,-0.15439102,0.70161825,0.78224814,0.2535173,-0.7386766,-0.64480174,0.07510078,-0.15171471,0.3363521,0.45823583,-0.09693973,-0.2579995,-0.8337221,-0.14914288,-0.4726515,-0.022412423,0.82393456,-0.90085477,-0.8967687,-0.42297083,0.6712517,-0.07308433,-0.46666706,0.8247082,0.7540208,0.6915034,0.8642716,-0.99851954,0.24049883,0.015022745,-0.3287143,-0.7726896,-0.11449736,-0.13134626,0.7523108,0.72736025,0.35543805,0.8024148,0.86553705,-0.105569534,0.49142984,0.5727462,0.65463835,-0.6864133,-0.6618195,-0.40606165,-0.17362338,-0.38319862,0.741062,-0.436587,-0.9170681,-0.45019227,-0.5566753,-0.6075293,-0.88268507,0.37932593,0.6964013,0.017096559,0.17463256,-0.28416353,0.42947194,-0.06072247,-0.15714636,-0.8699087,-0.9401605,0.7001704,-0.48761725,-0.5181725,-0.46158648,0.9393815,0.542502,0.33586097,-0.6637575,-0.11901805,0.6194628,0.6762205,-0.27386177,-0.09817674,-0.08410555,0.29465508,0.42464745,0.49006587,0.29452172,0.81202364,-0.95472276,0.9141895,-0.38421428,0.97993785,-0.5678693,-0.95379263,-0.5857418,-0.48993358,0.8574758,0.35336724,0.468961,-0.3756353,-0.3953401,-0.19188961,0.11561456,0.7819584,0.2737858,-0.27264535,-0.29061452,-0.65463066,0.38125426,-0.43943745,-0.43360528,-0.18772365,-0.78441143,0.26763284,-0.33851,-0.52873176,0.5375501,-0.8102046,0.7704424,0.588278,-0.11528833,-0.27978078,-0.54887205,0.92690605,-0.29271448,-0.5863054,0.2622211,0.5717777,0.039592415,-0.9459343,-0.65114117,0.40438232,0.41618544,-0.8977057,-0.57013804,0.4662174,0.93690675,-0.9360867,-0.5714115,0.33049464,0.54790807,-0.2703548,0.9425015,-0.17099012,0.7424145,0.26625934,-0.35723758,0.59063625,0.38724905,-0.39686128,0.34476304,-0.33626863,0.06939111,0.48425946,0.14652812,0.15748332,-0.966078,-0.64139205,0.6453619,-0.849937,0.2586704,0.7586907,-0.8026048,-0.93941903,-0.34041226,-0.26253176,0.2124507,-0.37019923,0.72809243,0.7142673,0.070862055,-0.71441716,0.4413657,-0.7839671,-0.38274437,-0.14866458,-0.5138824,-0.5068636,-0.9211813,-0.286026,0.020234322,-0.9632685,0.6626402,-0.25760078,0.8943375,-0.9977383,0.51116246,-0.84143746,0.47257844,-0.87290156,0.76055324,0.7711837,-0.62003666,-0.5119395,0.13608381,0.59834474,-0.4795318,-0.674297,-0.79419607,0.18250512,0.52567416,-0.11366352,-0.23231322,0.17902447,-0.11753223,-0.35732776,0.38805148,0.98950815,0.24500416,-0.69873446,-0.24241962,-0.19106999,-0.6371726,-0.4195739,-0.08172978,0.9635317,0.31586185,-0.87459403,-0.92099607,-0.79917985,0.52278525,0.9548534,0.14342412,-0.26059777,-0.73244447,-0.46991396,0.66327906,-0.852302,-0.25230223,-0.6443407,-0.3744322,-0.23453423,-0.1731107,0.74403596,0.2914192,-0.5018366,0.1890571,-0.55126256,-0.8981585,0.18873127,0.4495917,-0.089456365,0.42355594,0.87265,-0.6603626,-0.47687042,0.8552329,-0.5601075,-0.831349,0.20218338,0.0041909316,-0.41061842,-0.8726364,-0.48820323,0.103953384,0.26756266,0.6034995,-0.5401712,0.5672298,0.5176161,0.94949603,-0.046136376,0.7395815,-0.262692,-0.88364506,0.296714,0.3632464,0.7243403,0.87398744,-0.014705169,0.8250699,0.8462833,-0.52514595,-0.29919714,-0.0143693015,0.13023098,0.21714462,0.4774958,0.56861037,-0.781343,-0.1760046,-0.63774693,0.79949147,0.9026642,0.52506196,0.18672368,-0.93426365,-0.6288032,0.75860226,0.040376168,-0.37796196,0.48152754,-0.06795423,0.9037483,0.68367285,-0.80940074,-0.98232704,0.71809554,-0.996614,-0.72419,-0.74297696,0.18733102,0.9087186,0.3674112,-0.09923807,0.80654705,-0.7810246,-0.65590054,-0.6492243,0.39035413,0.122414045,0.2952381,0.82812846,0.57552636,-0.2660986,0.48927376,-0.8989859,-0.14255829,0.38242579,0.117423624,0.27336812,0.85353625,0.110146396,-0.12691209,0.2320014,-0.9049447,-0.56274647,0.03885724,0.70850796,0.8649533,-0.7866099,0.59116006,-0.4783274,0.18902107,-0.023905072,-0.870988,-0.4700419,0.2162838,0.32023782,-0.79701895,-0.023690965,0.14057203,0.63453025,-0.39393756,-0.4355836,0.65727836,-0.81521857,0.026165148,0.32927153,-0.6752218,0.8805371,0.92651176,0.7837718,-0.29400876,0.43254283,-0.41295558,-0.7557911,-0.5324596,0.22932157,-1.0026668,0.55809313,-0.47969005,0.72188544,0.62479323,0.25952825,-0.057006314,-0.55881256,-0.26487637,0.9771304,0.08722021,-0.41336423,0.9080956,-0.666811,-0.12029708,-0.66249126,-0.30887637,0.5703786,-0.8976223,-0.11201916,-0.115249,-0.020170359,0.8084598,-0.32055038,0.29576847,0.4472262,0.5770799,0.8491942,0.2932243,0.8487204,-0.83316195,0.6776186,-0.29899746,-0.31317163,-0.95695,0.20788643,0.49838838,0.10164454,0.07374371,-0.876897,0.78441656,-0.5251729,-0.7644677,0.59058565,-0.28959492,0.78014386,0.97202677,0.46177194,0.12249897,0.5676676,-0.61866486,-0.13159126,0.33271593,-0.8682192,-0.4927437,-0.5339726,0.08260434,0.9110661,-0.8659062,0.9227509,0.81773293,0.46160173,0.37051523,0.15280314,-0.76273626,0.30374575,0.5148768,0.61671287,0.6469624,0.9110012,-0.7201139,0.098136865,-0.3794317,-0.34229556,-0.19419628,-0.5420799,-0.7363522,0.09759313,-0.9783881,0.84023803,-0.42815447,0.06389548,-0.8341577,0.37785342,-0.47399884,0.7806657,0.44357994,-0.041959397,0.76598656,-0.6066941,0.36105767,-0.018278627,-0.79379606,0.29807287,0.065995246,0.24553174,0.21453471,-0.3273759,-0.17691779,-0.3114726,0.21568067,-0.9543439,0.8993132,-0.78954726,0.9535801,0.80140865,0.1264829,-0.43684775,0.3849246,-0.33616242,-0.5914876,-0.22713329,0.95585454,-0.57512295,0.13229339,-0.60445315,-0.48216534,-0.66097957,0.9659241,0.6210144,0.1754136,-0.83233595,0.15035084,-0.3781075,-0.9903269,0.6195898,0.791027,0.5839428,-0.95389163,0.5859991,0.61476964,0.5754131,0.9478754,0.083169825,-0.02154391,0.9069066,0.20881204,-0.76765364,0.49387902,0.47922853,-0.45627534,-0.8062272,0.07291409,-0.061675686,0.47176212,0.038106415,-0.96862626,0.80286723,-0.31910542,0.5953035,0.13713038,0.9260752,-0.6086878,-0.9562447,-0.5979476,-0.5787171,0.77787095,0.86129075,0.95718145,-0.97048885,-0.21749763,-0.17216046,-0.4207686,-0.80649734,-0.5150338,-0.8410752,-0.40664002,0.116654746,-0.16393843,0.2861196,0.8541216,-0.7453836,0.3241991,0.48897272,-0.23022306,0.3016023,-0.69337356,0.1884701,0.08437116,0.55887467,0.59256864,0.24328306,0.16939653,0.13282076,0.5514483,-0.88399285,-0.48951757,0.10277842,0.44372055,0.70481104,-0.5403312,0.1405782,-0.99468076,0.8385517,0.5480517,0.7300335,-0.42772606,-0.62309796,0.757561,-0.65011513,0.28442448,-0.9314981,-0.46752122,0.5054498,0.8599682,-0.015624686,0.7076344,-0.55992424,0.376501,0.30907968,-0.93681395,0.38836738,0.5953219,-0.5735707,-0.27171376,-0.27999476,0.071957976,-0.38863033,-0.40294495,0.018583987,0.40986744,0.39871502,0.9655317,0.8741486,-0.7466279,0.83911914,0.9396483,0.24135892,-0.51423216,-0.9204251,-0.8179672,0.62694794,0.89419955,0.21117951,-0.6408122,-0.13083081,-0.7405879,0.64718986,0.13404022,0.52306885,-0.5387347,0.29972577,-0.0591149,0.5605139,0.61204106,0.17864896,-0.66849256,-0.62992924,-0.3255818,-0.2091825,0.38929284,0.7310986,0.3049149,-0.9888252,0.6222263,0.6968176,0.733462,0.96377254,0.41438633,0.21772857,0.7825403,0.12437962,-0.48128402,-0.81312495,-0.45858315,0.45617163,0.77406824,0.26609832,0.38281262,-0.7709684,0.86096674,0.703426,0.08346807,-0.81936204,0.87121904,-0.19057585,-0.47946876,-0.5479419,0.78437835,-0.98907524,-0.4604893,-0.41566226,0.42247397,-0.66542745,0.0073857917,0.083376355,-0.18497807,-0.03217215,-0.1673011,-0.62512565,-0.0789666,0.78651994,-0.639167,-0.37749308,-0.9427344,0.38887358,-0.27629554,-0.0028729828,0.18128535,-0.0042120107,0.7366334,0.8915279,0.7648684,0.49431923,-0.10266113,0.9710307,0.35313076,0.452923,-0.45036185,0.75074196,0.32910255,-0.7370741,-0.15353428,0.0031257432,-0.813613,-0.66788596,-0.7336388,0.9842898,-0.46031347,-0.8195899,0.39591968,-0.8149045,0.85366195,-0.5116607,0.5848699,0.012281814,-0.9667172,0.5352911,0.09822938,0.17121464,-0.75825536,-0.014584358,0.78186435,-0.033650953,-0.76151747,0.44058412,-0.5133836,-0.67552835,0.6157999,-0.44000238,0.6247222,-0.39330032,-0.05366451,0.60138166,0.22928105,-0.3187151,-0.050312247,0.47937474,-0.691556,-0.75498945,-0.9762814,0.5172005,0.34525257,0.015713502,0.19691047,0.9276063,0.14536497,0.8535678,0.64936024,-0.5884485,-0.7851784,-0.7074436,-0.19743687,-0.5996784,-0.37545902,-0.75963336,-0.39695996,0.14950733,0.7382187,-0.39809644,0.8097489,0.107967265,0.14900248,-0.9728558,-0.42313913,0.58923113,-0.021700453,0.26281527,0.3823738,0.57387334,-0.8442508,0.049625132,0.8170749,0.39451674,0.42228365,-0.18204375,0.05936309,0.66239583,-0.5965593,0.057208724,0.58684725,0.9557993,-0.38623074,0.28105524,-0.14175479,0.2903283,-0.9443197,0.7501075,0.9081839,0.5758498,0.957598,-0.79880816,0.35760382,-0.18211184,-0.9672825,0.36301947,-0.2520573,-0.19754623,0.048033915,-0.54783607,0.78111434,-0.020253137,-0.6104967,0.8054432,-0.26430944,-0.6205953,0.82464767,0.30372146,-0.68965894,0.91781163,-0.55260503,0.16714998,-0.39019045,0.22921003,-0.31653482,0.8499967,0.6880121,-0.7288349,-0.5790971,-0.8366839,-1.0352199,0.5629122,0.23800822,-0.4443178,-0.611235,0.86719984,-0.91503286,-0.5873548,0.12093148,-0.4229992,0.916598,-1.0011503,0.054119352,-0.9062324,0.70569676,0.38376626,-0.35549247,-0.91112196,0.4201089,-0.58038175,0.06726716,0.4073002,-0.69771045,-0.11599409,-0.68945956,-0.7772679,-0.48358557,-0.3789025,-0.81928474,0.290001,-0.46968332,-0.2487664,-0.5218345,0.30476803,-0.4646357,0.9628026,-1.015812,-0.07374814,0.6803451,1.0095354,0.68938386,-0.37768245,0.61656106,0.7891295,-0.2624388,-0.6576311,-0.8397047,0.9784466,-0.4254066,0.7209459,-0.48696914,0.0023649696,0.6583971,-0.03668922,0.26765653,-0.5971619,-0.34735632,0.84633845,0.6194902,-0.7835361,0.72918284,-0.19033922,0.023654073,-0.5459575,0.13428542,-0.12936963,-0.2169858,-1.0290583,-0.0243363,0.26189816,0.96892935,-0.21513908,0.34986064,0.38185817,-0.7733356,-0.44423687,0.23104769,-0.43068033,0.82744473,-1.0542308,0.13430387,-0.6624586,-0.48458192,-0.3160017,-0.5028679,0.2447836,-0.6299473,-0.91684777,-0.6535924,-0.13874993,0.5387733,-0.4015681,0.02351837,0.31373554,-0.5364072,0.47434813,-0.5982521,-0.57170796,0.67008764,-0.060280073,-0.23270972,0.18538989,0.97068113,-0.018143525,-0.8931844,-0.08364629,-0.071258135,0.03886756,0.5070873,-0.29390806,0.4707696,-0.5847889,-0.037264504,0.60994655,-0.4239602,0.82112485,0.61872566,0.4722212,-0.26875573,0.014069293,-0.61368656,0.33410522,-0.13978899,0.2302853,0.45552254,0.8687644,0.35257804,0.1913409,-0.33966956,-0.91493577,-0.8499513,-0.13424233,0.10716541,0.23775598,-0.5957885,-0.5395879,0.9055865,0.06841482,0.9407378,0.5444557,-0.12915286,-0.5369519,-0.41603088,-0.21702343,0.48979875,0.7193443,0.7009204,0.17173819,0.19429295,-0.5404449,0.39291263,-0.22500539,0.19754976,0.078234844,-0.38359535,-0.28868735,0.07017655,0.22031006,-0.90750164,0.68251437,0.27125198,0.07330977,0.8808267,-0.8488887,-0.20325626,-0.8868491,-0.1578163,-0.78562415,-0.16862592,-0.5216824,0.1839487,0.354491,-0.25155008,-0.22356394,-0.44341925,-0.73909384,-0.52246803,-0.6471192,-0.5709927,-0.029418796,-0.5751384,0.57864547,-0.86536497,0.0083273975,0.1584582,0.15310259,0.72667074,-0.3064851,0.69129884,0.055346414,0.043557514,0.4570169,-0.64382005,-0.2974452,-0.095772825,-0.3700917,0.3069079,-0.07402613,0.2920789,-0.6939678,0.08958343,-0.2146409,0.17921485,0.035314452,0.42546335,-0.4000173,-0.32276312,0.6194463,-0.3739251,-0.186652,-0.15314385,-0.3812977,-0.0059096627,0.8393686,-0.55117816,0.11753904,-0.010880601,-0.13504824,0.22462144,-0.08387104,-0.42375153,0.09803519,-0.42142543,0.47494033,-0.8764962,-0.20696022,0.97666574,0.95836633,0.1737922,0.20115034,0.63480216,0.26784685,-0.9525576,0.6692864,0.3493887,0.6541109,0.5988812,0.70780826,0.102680616,-0.84011835,0.10050598,0.538648,-0.07928858,-0.6641343,-0.11945414,0.7187274,0.5165892,-0.5497972,0.2904249,-0.09264417,0.27574214,-0.23691289,0.20551048,0.020573419,-0.8084465,0.086073264,0.1663593,-0.586313,-0.37798798,0.24130476,0.85523707,0.9633065,-0.31476235,-0.1692397,-0.04916506,0.9083936,0.20288184,0.0024211514,-0.9582982,-0.8238375,0.026518267,-0.29676944,-0.70797884,0.8413347,0.67778116,-0.91786516,-0.8176874,-0.31729,0.3848325,0.33406627,-0.3389508,-0.9383167,0.40036908,-0.3767231,0.3757184,1.0025499,0.1822999,-0.7116178,0.037557762,0.017549904,0.49546313,0.6925075,0.43495685,0.796587,-0.5357636,0.971131,-0.0056660334,0.9593343,-0.25999552,0.5329535,0.35019872,0.7767629,-0.5359086,-0.85467404,0.5360593,0.5969298,-0.8578742,-0.30075687,-0.40480232,0.30335006,0.60201377,-0.78775465,-0.60604054,0.95683163,0.2820157,-0.5593409,-0.030983146,0.83732986,-0.8328578,0.22074206,-0.25595105,0.5295816,-0.5290262,0.9045625,0.85841316,-0.8257786,0.68306327,-0.23528238,-0.1679798,0.4482534,-0.78615654,-0.6530504,0.14967988,0.8935093,-0.47925827,-0.88185334,-0.55558586,-0.45245096,-0.6847732,0.80404,-1.0205487,-0.17336884,-0.30996382,-0.7733611,-0.5900193,0.13214014,-0.17330535,0.40737054,-0.44789,0.1448972,0.6910287,0.26552922,-0.57414246,0.8386561,0.41768545,0.546609,0.34114072,-0.5246061,0.41317254,0.5441986,0.7572868,0.21856289,-0.5031168,-0.119782366,0.46572274,-0.7686879,0.47310513,0.7829477,0.42112437,0.5321295,0.2735389,0.64498013,0.010608265,-0.5163926,0.2097315,0.05036602,0.4970217,-0.4998471,-0.9886079,0.079206854,0.30260068,0.0066978815,0.6423927,-0.81935936,0.026867643,0.7576511,0.4783049,0.7717397,0.43728253,0.41231975,0.6442709,0.78482276,0.5521813,-0.98178893,-0.15323241,0.53929037,0.52094936,-0.40923044,-0.015283921,-0.6703297,-0.15215346,-0.32707325,0.8592773,0.6249519,-0.18334562,0.5813269,-0.61821604,-0.24369897,0.64126754,0.4793854,0.3894898,-0.13961278,-0.09534323,-0.52574146,0.3037698,-0.35813186,-0.6253095,0.48757645,0.4835455,0.07435511,0.84588075,-0.956907,-0.64745563,-0.37665206,-0.46680364,-0.589128,0.08730803,-0.16803311,0.79615015,0.64069897,0.8533676,0.85744166,0.5216837,0.9121663,-0.62320936,0.07812682,0.07356258,0.5188384,-0.6023878,0.85932225,-0.8313599,0.879393,-0.85263616,0.44761232,0.30982557,0.48592585,-0.53176475,-0.6706906,0.2892357,1.0002054,-0.8631429,-0.81099737,-0.5304822,-0.3542439,-0.2427654,-0.20705049,0.67030364,0.9003832,-0.7887201,-0.38086212,0.23678045,-0.14525403,-0.13869056,-0.7436526,0.850542,-0.09024308,0.2750788,-0.27379084,-0.4335544,0.7308475,-0.3906091,-0.69254917,0.8585809,-0.9146597,0.10945146,0.54329085,-0.79921293,-0.06265866,0.53781396,0.39276147,-0.4306629,0.8684765,0.8686048,-0.93174267,0.13786933,-0.3204441,0.2106682,0.32308745,0.4048342,-0.5168582,0.015528818,0.0057932087,-0.30143,0.06942684,-0.07903329,-0.609284,-0.3039111,-0.42459777,-0.47400486,-0.8853572,-0.21503597,0.44368172,0.4718394,0.6302332,0.06274556,0.9119165,-0.19413547,0.5150135,-0.15592963,-0.27873194,0.3465524,-0.952511,-0.50640965,0.026730664,-0.4052431,0.89634037,-0.934312,0.98914015,0.12347882,0.7449786,-0.18661065,0.64354396,-0.42698747,-0.4686183,-0.12893452,0.60014987,-0.15550269,-0.11957447,0.6090221,0.72992533,0.11220925,-0.75831854,-1.0168444,-0.23599535,0.22444367,0.82553196,-0.44305167,-0.4678242,0.2833144,-0.02254604,0.68273723,0.50246364,-0.0029509917,0.1790964,0.36483288,0.36432236,-0.13644065,-0.5534192,0.15489617,-0.39538175,0.57149035,-0.14932948,0.6247909,-0.7636183,0.6071952,0.37327057,0.1335419,0.44770205,0.68369526,-0.012769584,-0.5953372,0.7173492,-0.51737475,-0.9105227,-0.63794655,0.35638192,0.8119593,1.0072844,0.10070691,-0.5907226,-0.61085975,-0.13931255,0.40097192,-0.25524265,-1.0048683,-0.43744484,-0.19519192,0.020455146,0.8281318,0.56161,0.8999393,-0.68957454,0.8112872,0.0515748,-0.96151346,-0.26225173,-0.7184557,-0.08772342,-0.8338185,-0.23388776,0.41058123,-0.8858192,-0.9183888,0.9524425,-0.7342233,0.29799816,-0.662488,0.6999818,0.110678464,-0.7069362,-0.8120327,0.45738,-0.3452566,0.7344365,-0.1186076,-0.3658657,-0.81778324,0.27650592,0.33285043,-0.39536372,0.8494011,0.84776145,0.2899589,-0.74122214,0.70445347,-0.416237,-0.05101402,0.64901024,-0.671458,0.5154699,0.63708484,0.28456876,0.44287756,0.9455388,-0.14139286,0.120359756,-0.5313609,0.959909,-0.5037134,-0.4940367,-0.5116925,0.09166235,0.4466735,0.065358795,-0.64164966,0.91184974,0.30723843,-0.46058038,-0.29434547,-0.894288,-0.42789307,-0.2694308,0.97207147,-0.684085,-0.15736236,-0.11511589,-0.9660137,-0.42825583,-0.61265284,-0.24426176,0.86235344,0.8032197,0.56748384,0.19387244,0.7454787,-0.8049256,-0.037531935,-0.8162627,-0.48005602,-0.01667394,-0.6576471,0.569091,-0.5225523,0.39712062,0.5289385,0.5787847,0.36824208,0.08123524,0.15013266,0.021810137,0.27203032,0.9275154,0.20662002,0.3005774,-0.9054561,-0.0976257,0.33704937,-0.85951114,-0.1882217,-0.68852866,-0.5566905,0.33090732,0.74345595,-0.20692047,0.95124847,-0.64998406,-0.016143227,-0.26034918,0.6014794,-0.22481458,0.017382668,-0.75055707,-0.24716824,0.5980308,-0.5362304,-0.67752886,-0.28520286,-0.50167346,-0.45647848,-0.117620125,-0.26737314,0.057650592,0.087117575,-0.5711321,-0.97260666,-0.5622916,-0.20096308,0.5755496,-0.931878,0.8517822,-0.11718676,0.6181243,-0.6189022,-0.07455811,0.6134692,0.17176275,0.21707645,0.009804101,0.898046,-0.7330496,-0.77773196,-0.26462534,0.12833424,-0.43397066,0.38838845,0.40681612,-0.8978967,0.28300247,0.28895944,0.8257897,-0.5910466,0.040397923,-0.383055,-0.56785864,-0.8345859,-0.96164113,-0.4727831,-0.16954824,-0.15116027,-0.3629308,0.2603738,0.49706084,-0.9971009,-0.12867844,-0.45125875,0.44835657,-0.5972072,-0.7492639,-0.52011603,0.8750319,0.4040027,0.18378842,0.69374484,0.4915361,-0.64745754,0.68991756,0.101341955,-0.94688714,0.25998423,0.9303674,0.81374055,-0.86315054,0.8154865,0.9311393,-0.15509519,-0.69423413,0.17334737,-0.20189537,-0.27460268,-0.24829605,-0.14543255,0.790933,0.2668698,0.8971086,-0.5365547,0.8717546,0.44459692,-0.1336579,-0.49972707,-1.0128407,0.7862141,-0.82660645,0.3210232,-0.8391493,-0.8556179,0.5730728,-0.64648664,-0.617425,0.46712047,0.29513425,-0.93332237,-0.8740637,-0.009424677,0.098409206,0.501147,-0.5796267,-0.8711589,0.8960259,0.72191334,0.16948469,0.19705327,0.89435285,-0.5465255,0.81874114,-0.4199341,0.27790588,0.11006191,-0.12822871,-0.43883726,0.30462098,0.34414214,-0.85844874,-0.25118423,0.81991714,-0.8450782,-0.75444525,-0.3406116,0.89097255,-0.74451697,0.4309004,0.48769686,0.41021627,-0.20970151,-0.8935515,0.10902866,0.09544768,-0.40988445,-0.374222,-0.44999143,0.572601,-0.3229583,0.70034593,-0.94264096,0.9989922,0.33379003,0.30915925,-0.33324715,-0.30955693,0.7194343,-0.008429258,0.41011646,0.48950234,0.14145385,0.104826696,-0.25931808,-0.109997645,-0.05812601,0.7421911,-0.09656141,0.954553,0.34090507,0.50949985,-0.7550379,-0.47956622,-0.46367267,-0.6357038,0.5044809,-0.11299232,0.0654305,-0.47320506,-0.6410765,-0.68627053,-0.4879875,-0.65615153,0.09103408,0.6428216,-0.34909493,0.9665651,-0.40930137,0.60720444,-0.25173184,-0.0052554375,0.1596067,0.07931408,0.58261484,0.5141208,-0.7977479,-0.124516964,0.8136779,0.7582938,-0.8265846,-0.70286304,-0.22216527,-0.68697584,-0.10684161,0.986799,-0.06287922,-1.0071067,-0.9156395,0.15772851,-0.83867526,0.7948446,-0.38574168,0.86057997,0.9310751,0.40790725,-0.3133811,-0.30449405,-0.0385972,0.1583728,0.68462145,-0.52769905,0.16427732,0.5751838,0.5118988,-0.94734627,0.40301195,-0.94783133,0.033556093,-0.33095223,-0.049613,0.61165214,-0.66580296,0.48666573,-0.4169055,0.50408345,0.95297873,0.5097881,-0.715414,-0.20861903,-0.07087802,-0.28952858,-0.043468576,0.063512,-0.7107589,0.8100421,0.92416203,0.33532292,0.16079782,-0.4555073,-0.95643413,-0.75272876,-0.8719161,-0.3778029,-0.7840973,-0.5079983,-0.5257085,-0.7917262,-0.03751829,0.253249,-0.72045577,-0.78678894,0.57235754,0.41535908,0.5942611,-0.48728523,0.6816094,-0.6283137,-0.87047374,-0.11382056,0.29664177,0.9847345,-0.50822395,-0.22900903,0.34406683,0.62948555,-0.25869992,-0.2548938,0.98266214,-0.5043243,-0.3333758,0.82651913,0.516503,0.8253044,0.74780774,-0.047421563,0.29957926,0.14938793,-0.7196236,0.23477641,0.49589705,-0.57018995,-0.87996614,0.3072122,0.29522318,0.029523809,0.9328238,-0.8612447,0.6474011,-0.5834489,0.53213185,-0.8807274,0.12160107,-0.8833751,0.5160075,-0.62289435,-0.21194555,-0.5819001,-0.08239241,-0.42880622,0.6912508,-0.6388266,0.14946574,0.36512417,0.74741596,0.019697236,-0.20981199,-0.4224178,0.5551509,0.17415191,0.47967422,0.97753954,0.14059523,-0.11808452,0.9339234,0.6280995,-0.3242959,0.82674325,0.8848305,0.39221105,-0.3757518,0.22592366,0.6699969,-0.4438723,0.6209686,-0.07616332,-0.23433977,0.525408,-0.609951,-0.62671274,0.9309901,0.13243864,-0.9356098,0.83492255,0.40455028,0.84895396,-0.03462714,-0.10059734,0.29217607,1.0360817,-0.9017444,-0.8702211,0.5410162,-0.11096083,-0.4982204,0.4811671,0.056672372,-0.9710541,-0.489524,0.48137033,0.5661254,-0.35386187,0.16082999,-0.8985397,-0.8836321,0.024273362,0.052018613,0.07192198,0.33117962,0.8889173,-0.7328198,0.2932716,0.7951045,-0.741838,-0.38291925,0.46945697,0.33767048,-0.58670527,0.5313092,0.6482255,0.55215126,0.8700315,0.7401519,-0.9497183,0.5772882,0.343734,0.45876542,0.8862363,-0.75104576,0.33917594,-0.4004998,0.7848323,-0.57201463,0.4331348,0.78428304,-0.94960517,0.13438317,0.29185054,-0.7730715,0.4682431,0.9457191,-0.27697244,0.66076404,-0.5690049,0.08289456,-0.92660314,-0.9150984,0.35204133,0.60999745,-0.2817587,-0.17350991,-0.09622642,0.7927733,0.6245061,0.14025803,-0.9565585,0.399522,-0.51409835,0.25459787,0.85163903,0.08641271,-0.4445174,0.46692553,0.072158925,-0.6741802,-0.35680103,0.06417572,0.30749953,0.630835,0.47574106,0.7314554,-0.49065167,0.2147248,-0.8000048,-0.6050471,-0.38158637,0.19103482,-0.7730054,-0.66876054,-0.23776683,-0.8219441,0.78445876,0.895551,0.43364656,0.38715583,0.7883407,0.2439655,0.41414952,-0.5464569,-0.28293568,-0.42119768,-0.019083511,0.039868973,0.1531342,-0.6810298,-0.29446903,-0.19864754,0.9814943,-0.73536265,0.8060006,-0.7823767,0.6666985,0.6557502,-0.24144086,-0.18681984,-0.75385857,-0.69924814,-0.88952005,-0.50139415,-0.15655173,0.9979529,-0.86906034,-0.022858866,-0.34862536,-0.2015414,0.008549598,0.17160127,0.4087662,0.42592525,-0.15117858,0.7736523,-0.011286416,0.96871966,0.7175726,0.13276647,-0.59338367,-0.9692815,0.9137376,-0.8787556,-0.1301387,-0.43267974,0.21461916,0.7002993,0.45432225,0.09893535,-0.7426341,0.7029269,-0.36193466,-0.45744342,-0.918038,-0.36724743,0.78974485,-0.3498843,1.0575017,-0.54412854,0.25966203,-0.95759046,-0.69348115,-0.10373418,-0.26936284,-0.6177047,-0.31763273,-0.1884378,-0.31847057,0.40436554,0.7459436,0.6144363,-0.95006704,0.18769982,-0.9484903,-0.62272173,0.99115056,-0.8693234,0.21200375,0.6075438,-0.25488752,0.022115452,0.24100848,1.0186499,0.27800435,0.16925287,-0.30808347,0.10493883,-0.05150087,-0.73154753,0.70952094,-0.2739356,0.32947657,-0.23841585,0.77014816,0.20253034,0.9275351,0.4098209,-0.6539341,0.88989925,-0.8439959,0.9875108,-0.9271686,0.05052121,0.25013915,0.5358537,0.43244985,-0.69879603,-0.42623064,0.17313042,-0.67227536,0.6665219,-0.37416375,0.2695285,-0.44549233,0.7942298,-0.483525,0.65330195,0.18521081,0.26045376,0.6966541,-0.36232042,-0.50335115,-0.88265425,0.9148657,0.096191555,-0.19647922,0.9212199,-0.0844204,0.8635982,-0.07622318,-0.31630394,0.5995514,0.63558334,0.9437977,0.6315984,-0.75310516,0.3462891,-0.17378025,0.3386649,0.18979947,0.088720314,0.037168838,0.060849223,-0.28842086,0.88636446,-0.13052619,0.3982672,-0.96579844,-0.5706052,-0.37006137,-0.38401812,-0.2964154,0.8328328,-0.799199,-0.46498016,0.36934888,-0.73828614,-0.13680872,-0.3093589,0.55033714,0.095016785,-0.5815372,0.062275063,-0.310711,-0.48792633,-0.88245106,-0.34655577,0.69902277,-0.8491108,0.94639045,-1.0011944,0.20348988,-0.60282034,-0.39089718,-0.05722491,-0.7020699,-0.2522781,-0.9592788,0.3542345,-0.67594737,-0.8800401,-0.9202439,-0.45155773,-0.7563016,-0.2548358,0.044734567,0.50976396,-0.18734832,0.43298334,-0.7371291,-0.57659894,0.91746545,0.28529978,0.78276175,0.24738495,0.49630302,-0.78476924,0.2687655,0.5977118,-0.46909136,-0.0358358,0.7829947,0.61336106,-0.547828,0.77713007,-0.07230636,-0.7243547,0.8691214,-0.05170429,0.3160395,-0.764765,0.8399082,-0.58559227,0.38764092,-0.2537535,-0.036274575,-0.42211372,0.81502026,-0.52116865,0.6840247,-0.14392224,0.69190097,-0.7664048,0.3989414,-0.87868047,-0.5081227,0.327465,0.29813224,0.29358742,-0.6911112,-0.8663906,0.18455277,-0.7745094,0.07306454,0.11850394,-0.89960515,-0.25844553,0.4146972,0.18706526,-1.1083553,0.9080618,-0.49861225,1.0215969,0.58113456,0.7861997,-0.9140447,0.5819749,-0.6209697,0.65591294,-0.06564295,0.16898757,-0.7969804,0.8736339,-0.8608159,-0.014881021,0.441345,-0.28399688,0.66958344,-0.008792717,-0.4579721,0.85515875,0.835876,-0.17181987,0.47748947,0.7910805,-0.11988394,-0.40434098,-0.1872581,-0.041806255,-0.72522676,-0.812581,0.76266223,0.45108694,-0.866122,-0.08779266,0.09396434,0.71727616,0.8677283,-0.28708073,-0.59771657,0.15341741,-0.7029918,0.9018897,0.86474055,-0.7083363,0.7589583,-0.27812615,0.03269631,-0.6214239,0.9407964,0.8241759,0.46606198,0.09852708,-0.5749595,0.25899702,-0.48600897,0.6541677,-0.2614525,-0.25015545,-0.28153282,-0.7319229,1.0972637,0.49024484,0.10339442,0.11755039,-0.27409846,0.84722674,0.06250901,-0.21456286,0.04716488,-0.8896519,-0.3162289,0.96076,-0.7728253,0.4860077,0.26454422,0.6105902,-0.54601586,-0.16374709,0.95891166,-0.5825959,0.5323341,0.78290373,-0.8829511,-0.18640892,0.09515754,-0.9453677,0.47806174,0.91707844,-0.4947072,-0.22949107,0.3523517,0.62150407,-0.026497513,-0.60543483,-0.08398238,0.7150986,0.8238478,-0.30221272,-0.829527,-0.9617317,-0.26721156,-0.29585207,-0.15454826,-0.24420437,0.6332188,0.11901275,0.10833796,0.19100857,0.1714282,-0.747988,-0.7312713,-0.82374144,0.11250942,0.74802077,-0.040076446,-0.48757342,0.56853265,-0.91839534,0.10317665,-0.9275635,-0.59381366,-0.3687727,0.6902466,-0.08183014,0.8821359,-0.8303592,-0.19415252,0.09964588,0.5345231,0.9524502,0.8058745,-0.845167,-0.75364923,0.7889273,-0.4758258,-0.8291525,-0.43552762,-0.37988588,0.38688153,-0.059276644,0.54500115,0.48693997,-0.43287602,0.37483588,-0.5846084,0.27986208,-0.84014237,0.6560531,-0.04146179,-0.69423527,0.10634642,0.24198239,-1.0084286,-0.11806732,-0.2920258,-0.8739755,-0.47181046,-0.2638144,0.3493426,0.30988437,-0.05544743,-0.21799664,-0.105711095,0.56158924,0.695498,-1.005291,0.6728369,0.49824405,0.9830392,0.11203873,0.41369274,0.6642993,0.7118999,-0.57856584,-0.8213373,0.3713438,-0.20994532,-0.54634947,-0.14889039,-0.45711282,-0.6767752,0.3232847,0.828655,0.37547833,0.32194346,0.20182002,-0.3207535,-0.22065207,-0.27889198,-0.0876567,-0.5489398,0.12104923,0.10040317,0.4847891,0.38462663,0.67529744,-0.6410813,-0.5029829,-0.3375981,-0.2748171,0.2422468,0.7323892,0.856667,-0.7755053,0.6179967,0.72753894,0.3964033,-0.8016912,0.47661468,0.44802752,-0.08306992,-0.432224,0.25945932,-0.81997395,0.34367794,0.38911098,-0.9314114,-0.23563783,-0.19336376,-0.3643272,-0.2900198,0.07638331,-0.96337587,-0.4427066,-0.31919363,-0.37853712,0.63903964,0.22663747,0.5783595,-0.6352836,-0.8863457,-0.4897624,0.7396114,0.26016188,0.042546514,-0.8487643,0.929826,1.0004781,0.35577798,-0.13684563,0.82189924,0.8537308,-0.5607852,0.24837416,-0.7534746,-0.30704695,0.32530048,0.32401943,0.17486098,-0.253661,0.07569766,-0.2651256,-0.58148736,0.75408685,-0.49789613,-0.895574,-0.78506094,-0.58113736,0.37320518,-0.08649589,0.38163447,0.29340214,0.6146474,-0.6600938,0.28596812,-0.2765628,-0.09083138,-0.38909462,-0.37294665,-0.27321374,-0.30668175,0.49394488,0.18990287,0.7124067,0.7098941,0.84549606,0.2581484,-0.81131,0.14086956,0.6583323,-0.2675975,-0.2331998,0.65313554,0.079414956,0.6689303,0.79081416,-0.5019385,0.795302,-0.28149542,0.917194,-0.26328918,0.7429265,0.0065538716,-0.14117004,0.4432062,0.96736556,-0.26609963,-0.35231152,0.38309097,0.6199663,0.74052566,-0.33944967,-0.049744155,-0.58839667,-0.086675666,0.09781711,0.8596409,0.96968323,-0.3561107,-0.5883125,0.19007617,-0.05767234,0.6806705,0.14283736,-0.029946093,-0.20058614,0.011398877,0.26082227,0.09875644,0.15873897,0.17660607,-0.33667186,-0.9656797,0.65524334,-0.8255194,0.108052805,0.44304055,0.58449143,-0.51368105,-0.7734524,-0.19721597,0.06141337,-0.21503839,0.7427765,0.45137805,-0.8898381,-0.22929691,-0.3522567,-0.9461007,-0.36989653,0.7336801,-0.7378849,0.79737616,0.0828909,0.02553815,-0.5498169,-0.32533324,0.42166108,0.011556384,0.23665322,0.19563702,-0.4278545,-0.52285385,0.3470722,-0.21815337,-0.959004,0.3667036,-0.108765684,0.18424767,0.51003677,-0.91849345,-0.9253886,-0.69954425,-0.24968109,-0.93510544,0.62805593,-0.69895726,0.7895496,0.7432377,-0.3024354,0.30467647,0.9047911,-0.34156907,-0.2465825,0.75879467,-0.62470347,-0.8704621,0.3544623,0.5018088,0.025880937,0.86927694,-0.11198603,-0.21306865,0.4587982,0.0069084656,0.8991478,0.6411161,0.3654959,0.97962886,-0.56341493,0.021653201,0.32483473,0.87293124,0.015317519,0.290487,0.9639429,0.25793788,0.60963976,0.98600453,-0.68535435,-0.94269115,0.04471564,-0.68244797,0.28088313,0.1746242,-0.13914111,-0.6231626,-0.79013634,-0.70314014,-0.72615916,0.65686125,0.7052607,-0.31636938,-0.46251997,-0.64428806,0.9483575,0.54768014,0.69434005,-0.27020326,-0.0042449846,-0.90018547,0.4097292,0.35523498,0.9223685,-0.39835417,-0.9662364,0.09192872,0.47670764,0.036818966,0.8289145,-0.50256366,0.77817047,-0.6780838,0.8961011,-0.07048893,0.27160442,0.6471877,-0.51986134,-0.9802173,0.04587239,0.8565442,0.30410156,-0.6028306,0.31438616,0.8552166,0.4435292,0.67167205,-0.42920756,-0.006539153,0.48960337,0.767291,0.3497292,0.7104414,-0.81491816,0.85399413,-0.44848776,-0.66132593,0.4067957,-0.06524871,0.14187336,-0.44388744,0.5235071,-0.3313125,-0.9203853,0.1948236,0.8379757,-0.37972564,-0.50532526,0.48963204,0.62366396,0.97796345,-0.3053223,-0.07883748,0.8853633,-0.5666173,0.36110988,-0.89875436,0.13087364,0.008944372,0.6606417,-0.8010654,-0.106349595,-0.39850673,-0.71293944,-0.07568876,-0.6824625,-0.8479493,0.9581438,0.737121,-0.18780214,0.5129266,0.8618501,-0.5617341,-0.1012189,0.9456763,0.2141251,-0.47049534,-0.9880576,-0.70720935,-0.6611674,0.3155005,0.6883822,-0.21345598,-0.8434747,-0.941968,-0.35127482,0.54978573,-0.16359507,-0.8808613,-0.02497412,-0.66891706,-0.03827376,0.25385153,-0.28832737,-0.35140637,-0.3640931,-0.2258457,-0.04309851,-0.25422794,-0.0823615,-0.46357983,-0.7537619,0.13989277,-0.33482996,0.2296314,0.07088166,0.66076666,-0.10166086,-0.34978017,-0.29620638,-0.83946353,0.2452839,-0.8309828,0.40838936,0.85281545,0.8162881,-0.3969916,0.7864746,0.6864485,0.5809686,1.069988,-0.11141314,-0.012124577,-0.78783417,0.8139465,-0.50435734,-0.030740026,-0.7555863,0.8118462,-0.9109689,0.2178203,-0.51901335,-0.5351438,0.51345736,-0.285466,0.03325798,0.94997144,0.89254165,-0.9717024,-0.040113207,-0.4110109,0.060528435,-0.76157534,0.121848635,0.24265118,0.8371658,0.19044797,-0.22877039,-0.096654214,-0.9617803,-0.9650552,-0.8630497,-0.15747501,-0.40085664,-0.8593941,-0.6838562,-0.77409256,0.0062330435,0.5362137,-0.26117885,-0.37557915,-0.6865516,-0.69902134,-0.2828245,0.0051401686,0.13579732,-0.7288374,-0.9042117,0.18707816,0.5208788,-0.30420443,-0.23128083,0.012824111,0.6980474,0.1890598,0.7302639,0.8728039,-0.008653365,-0.8794881,0.47049406,0.19525093,0.55625963,0.45782804,-0.13435155,-0.9915717,-0.96887565,-0.27507108,0.8048434,-0.0576721,0.12336546,0.18686205,0.9595404,0.6017668,0.636156,0.17369424,-0.82124263,-0.5936933,-0.0014178697,-0.87174994,-0.24055271,0.152194,-0.13840647,0.80229366,-0.64653593,0.7430839,0.69144815,-0.57598376,-0.93004864,0.83352476,0.07056364,-0.6175586,-0.74213725,-0.6113727,-0.46293586,0.5799677,0.6984099,-0.21595268,0.35525557,0.96754855,0.60156876,0.60398537,-0.66731834,0.5632723,0.38118443,0.23697081,0.9689687,0.63120574,-0.5596409,-0.5711798,0.59133506,-0.9222153,0.54335785,0.3666399,0.89804983,-0.33593053,-0.018713018,0.34544381,0.47227862,-0.8044985,0.5304111,-0.37061888,-0.2979687,0.35756463,-0.38431656,0.63546157,0.9308727,0.066037096,0.7883149,-0.43300042,-1.0219585,-0.19762672,-0.9236263,-0.036504433,-0.8309047,0.68350255,-0.83981717,-0.33750764,-0.7817849,-0.21131524,0.20412536,0.41481537,0.5413206,0.8810918,0.9068404,-0.24254045,-1.0053595,-0.576989,-0.5378307,0.08596493,0.9854981,0.18139079,-0.31562263,-0.33614075,0.57651377,-0.15141976,0.837166,0.8918289,-0.14578588,0.7252455,0.01891348,0.67636096,-0.53761667,0.024742523,0.94547683,-0.31706885,0.1869746,0.36617938,0.6454345,0.26455957,-0.5140202,-0.5715282,-0.35709375,-0.20191917,0.89238626,0.47824615,-0.25621283,0.9100471,-0.6547559,-0.82249767,0.91355807,-0.17904359,0.22863205,-0.24983974,-0.2836684,-0.07358469,-0.037752517,0.85373276,0.5892087,0.17743252,0.50554544,0.5392334,-0.712627,-0.1191495,-0.6122955,0.7792215,0.12079422,-0.3653405,0.34203583,-0.0048499764,-0.06860655,0.1541313,0.14848529,0.7586216,0.84471,-0.23331666,0.60421896,-0.8886083,-0.7314074,-0.12100514,0.88821834,-0.06959729,0.2810986,-0.55989444,0.3346361,-0.98404527,0.2692385,-0.8020521,0.7726641,-0.5432211,0.4590629,-0.73633474,-0.07172961,0.29608098,-0.77535886,0.6718259,-0.22977452,-0.079933725,-0.22571705,0.3728129,-0.35091132,-0.8741038,0.43713707,0.95216143,-0.61915886,-0.6629876,-0.46642643,0.52978134,0.21419941,0.7343302,-0.43084946,-0.59094924,0.56690395,-0.04479334,0.7988885,0.8686446,-0.861879,0.79659796,0.7155896,-0.3309925,0.7965642,-0.16292357,0.6875754,0.15669544,-0.7365489,-0.7279359,-0.47604927,-0.21072717,0.2512078,-0.46254164,0.7496257,0.76328516,0.09062963,0.4097851,0.060235962,0.024412131,-0.24760295,-0.83259404,-0.86017346,0.6103713,0.49124342,0.6624125,0.12551472,0.9436742,-0.70668185,0.21592167,0.5867792,-0.57751083,-0.0029532288,0.39751542,0.42461658,0.58776224,0.049708724,-0.083328664,0.32330686,0.040678736,-0.2547211,0.14849634,0.250941,-0.832853,0.17391625,-0.24220048,-0.020420756,-0.31598493,0.44708622,-0.6427107,-0.47490302,0.6081277,-0.98241454,-0.73396957,0.08647717,-0.59738445,0.7834072,0.7104316,0.6762819,0.82632786,-0.8705532,-0.6787249,0.976067,-0.9121053,-0.3777699,0.6808098,-0.4410039,0.0016024502,0.68131113,-0.5672554,-0.15676953,-0.7748919,-0.38753545,0.649681,-0.37382478,-0.8080693,-0.9043268,0.35386714,0.22518565,-0.21781985,0.59339315,-0.53832704,0.013576731,0.6494279,1.0088443,-0.9048306,-0.2578129,0.04771258,0.4151173,0.06821781,-0.014793234,0.16185893,-0.14435014,1.0028353,-0.46328452,-0.35141063,-0.7376438,-0.80344856,-0.062256027,-0.18139483,0.03460475,0.58674484,-0.8632628,0.489586,-0.03794515,0.5307664,-0.47778413,-0.6890413,-0.98346126,0.5631627,-0.55943096,0.27553922,-0.4800538,-0.22883865,-0.83179396,-0.7265751,0.46768168,0.22124961,-0.3491598,0.96291643,-0.48178825,-0.68830866,-0.20420372,0.47568017,-0.29967797,-0.423339,-0.62273926,-0.35743406,-0.035487972,0.7974886,0.76214695,-0.1333211,0.7368569,-0.6128665,-0.71387243,0.7886542,0.57737267,0.34601596,-0.77937096,-0.14946356,0.50955176,-0.4334043,-0.30909973,0.7508509,0.042037893,0.07582534,-0.3152742,-0.5616398,0.4185228,-0.6343664,-0.32915187,-0.80424875,-0.81772935,-0.89199513,0.8400198,-0.38921478,-0.5814309,0.21436091,0.36572453,-0.6126142,0.80616343,0.98565894,0.05458152,0.121867426,0.20219149,-0.5500954,0.3405396,0.13516195,0.6798694,-0.2982346,0.47455662,0.2922916,0.4368486,-0.16106093,-0.46676084,0.2681958,-0.23379382,0.42014283,0.3485109,0.82768154,0.84196705,-0.5175538,0.3750323,-0.30009937,-0.5969105,0.6855078,0.37924442,0.59456164,-0.78751725,-0.66196233,-0.6768057,-0.3015253,0.39645573,-0.6973067,-0.60066414,0.15815522,-0.22492827,-0.62441766,-0.5795859,-0.8009699,0.7684726,-0.2640973,-0.13403623,0.80126697,0.14531922,0.2538797,-0.20083313,-0.960941,-0.149737,0.5478442,0.8571419,0.25094464,-0.6673641,-0.3865104,-0.763152,-0.18659186,-0.97307676,0.94270176,-0.35552698,0.47581795,-0.56965625,-0.57408047,-0.025037417,-0.09989131,0.96218956,-0.9955494,-0.119736485,0.40547657,-0.4070619,0.25765577,0.6357145,0.21351701,0.32327205,-0.54802316,-0.06774953,-0.92376745,-0.6102195,-0.6431961,-0.8258379,-0.7512714,-0.9205513,-0.39989787,0.5212702,-0.9137503,0.30179805,-0.6294488,-0.80352664,-0.17950729,0.9083292,0.12395417,0.59329873,-0.93079704,-0.26249906,0.8998733,0.7360038,0.8816324,0.8217926,-0.54316026,0.002640185,-0.33194497,0.10447074,-0.9892211,-0.3705804,-0.8127886,0.7646739,0.41140372,-0.68396086,0.69056904,-0.6865759,-0.9444118,0.16026245,0.89640456,0.45306897,0.55862826,0.1396157,-0.7910365,0.3251733,0.14048174,0.46770296,-0.5474917,0.3470151,0.6110132,-0.81087255,0.7137354,0.90407366,0.29423952,0.50692284,-0.8545726,0.2767202,-0.16602372,0.9379613,0.3824809,0.09375056,0.31830505,-0.20893095,-0.090639435,-0.6892993,0.41087618,-0.81682426,-0.2645072,-0.8163847,-0.02514585,0.87022567,0.064564705,0.018866085,-1.0202518,0.15431829,-0.7042135,-0.6485603,-0.8383444,0.053174086,-0.40387845,-0.589809,0.60772395,-0.24081884,0.43338946,0.68645185,-0.5628348,-0.6792329,-0.3933513,-0.67835116,0.19092378,0.12725118,0.7240183,-0.39025384,0.08850234,0.6297726,-0.70665437,-0.36254445,0.078117624,-0.027395206,0.63110024,-0.6210647,-0.6243331,0.32731926,-0.86796135,0.02663246,0.80780524,-0.61583257,0.5171663,0.843601,0.49670392,0.9381054,-0.5268266,0.027152298,0.56518567,0.1155659,-0.22334458,-0.7350641,-0.41964585,-0.4683068,-0.8390508,0.7437103,0.19005793,-0.11703275,0.06257253,-0.42335507,-0.61139935,-0.7201819,-0.63222265,-0.895553,-0.63908637,-0.80423325,0.6574792,0.9721787,-0.40623397,-0.94177157,0.92513955,0.9113448,0.96267414,0.40197036,-0.3493192,0.74133956,-0.6841358,-0.37888786,0.39621562,0.6421652,0.27912313,-0.4891083,0.5514118,-0.6325212,0.111841395,0.4736727,-0.98748666,0.11699039,0.04924326,0.22560672,-0.76742476,0.6569709,-0.38712615,-0.20095086,-0.38434362,-0.43350065,-0.11914385,0.25190553,-0.21508323,-0.10821156,-0.062562235,0.4880276,0.66163915,-0.47360379,-0.58880305,-0.39707166,0.6746786,-0.12651214,0.72274446,-0.0360466,-0.42584598,0.413286,-0.744189,-0.4616261,0.17005262,-0.3066101,0.02387997,-0.4601293,-0.57342815,-0.32523876,0.7677835,-0.5698546,-0.41081306,0.7112727,0.13570437,0.5296542,-0.06688129,0.79516083,0.3339702,0.6081281,0.0024716635,-0.96016264,0.06611405,-0.7696665,0.3010843,0.9255664,-0.9706381,-0.8716632,0.803734,0.9064406,0.30278894,0.8196924,0.43817,-0.18599871,-0.7917873,-0.33669764,-0.60507774,0.13975374,0.47005555,0.3462584,-0.08383238,0.75636995,0.356037,-0.13916142,-0.09949301,0.42046297,0.76404023,0.107706524,-0.82452524,-0.6758457,-0.21222018,0.3400235,-0.16765769,0.24904086,-0.07600654,0.9428184,0.8129657,0.499644,-0.60356265,0.7119645,-0.2256078,-0.68819726,-0.47613674,-0.81072086,-1.0088682,-0.46891358,0.07286034,-0.025676176,0.13876468,-0.40161377,-0.52550536,-0.2794718,0.6265449,-0.14462705,0.48278353,0.3613252,0.024556715,-0.16327539,0.39219984,0.5022697,0.9860472,0.084114976,0.8191147,0.588624,-0.92409676,0.25258344,-0.34932655,-0.83057994,-0.73808354,-0.76197785,-0.89672464,0.09276817,0.05712254,0.54860747,0.20342366,0.9284493,0.098632626,0.92960906,0.47979566,-0.6780006,-0.3181855,-0.0029084333,0.50326854,-0.9701912,-0.9073953,-0.62691236,-0.17192993,-0.36078724,0.46085522,-0.58539873,0.39370298,-0.7218768,-0.54218864,-0.2739543,-0.017961543,0.2620203,0.51203066,0.36443236,-0.77917975,0.67891246,0.097039655,0.43086463,0.7212263,0.5899126,0.6125235,-0.25768453,0.027862867,0.36726084,0.03856353,0.101844616,-0.110407956,-0.65331596,-0.753331,0.4042004,-0.62149185,-0.8727237,-0.56683004,0.9485628,-0.9590635,0.8378954,0.07529246,-0.7874651,0.5949216,0.49142578,-0.8817563,-0.18178155,0.0046988362,-0.7073538,-0.5611049,-0.66239244,-0.6632944,-0.96305466,-0.41852495,-0.48986644,-0.30591357,-0.5382184,0.5126668,-0.6267236,-0.05492016,0.097513095,-0.59931815,0.20808029,-0.039979756,-0.85935813,0.9907352,-0.07410408,-0.9563244,-0.78221595,0.7658325,-0.89322335,0.91557735,-0.11955816,-0.13233545,0.6663602,-0.72833467,0.19267349,0.09305131,-0.5325082,-0.65096766,0.91057014,0.78163856,-0.3474237,-0.838021,-0.51053745,0.56756705,0.061642893,0.04085328,0.033845127,-0.2988954,-0.6385416,0.06280648,-0.95360184,-0.6178427,-0.38435578,-0.44542396,-0.5672611,0.4078772,-0.9249244,-0.91460365,0.10206941,-0.8654545,0.06426826,0.93612784,0.451118,-0.62069297,-0.7024213,0.13210341,0.18079227,-0.6967535,-0.4229061,0.5680822,-0.46895233,0.61312443,-0.3961906,-0.71695185,-0.7368982,0.82491785,0.4885276,0.024166794,0.28855845,0.45113277,-0.69618857,0.06160398,-0.33944768,-0.66324717,0.30489644,0.44622427,-0.87753046,0.22268681,-0.5492852,0.14255011,0.6634026,-0.174483,0.8065707,0.2159958,0.36892477,0.061185442,-0.8311489,-0.5859381,0.24937484,-0.51363796,0.38633776,-0.5718551,-0.6991987,0.86359453,-0.78904754,-0.56766367,0.8992542,0.21526626,0.703342,0.53141606,0.24863355,0.9530279,-0.20702209,-0.10653038,0.74478453,-0.27447847,0.31311652,0.8929783,0.11817289,0.09502242,0.7485807,-0.5352004,0.46616587,0.68910867,-0.8003901,-0.9853247,0.79237336,0.56091875,0.39059475,0.5099228,0.99587786,0.16783768,0.76745975,-0.13420172,0.70480686,0.85586137,-0.2667919,-0.78382987,-0.6840869,-0.25506866,-0.7788621,0.16618524,-0.45012018,0.47161114,-0.93869495,-0.86941904,-0.45053744,-0.40550578,-0.42673287,0.6187278,-0.31862465,0.30628005,-0.28436008,0.87417775,0.7074982,-0.8719392,0.45302865,0.21636319,-0.6587016,-0.2863803,-0.0599389,-0.16796798,-0.52662355,-0.2539336,-0.15035455,-0.15729144,-0.22070605,-0.7213767,-0.19917849,0.61882067,0.3091684,-0.056426946,-0.00094953174,0.27202153,-0.42411435,0.44445726,0.10182063,-0.76572615,-0.6835232,0.8241905,0.6222548,0.24377593,-0.6460472,0.69247574,0.63964176,-0.8885598,0.8102784,1.0019548,0.75678575,0.16487384,-0.7718611,-0.8742191,-0.33411643,0.20576721,0.55870956,-0.38478583,0.5618436,0.4598422,0.70809925,-0.50414747,-0.33745894,0.5404587,0.38641497,0.81658816,-0.1460143,-0.060274445,0.60623413,0.66960025,0.8132341,0.13227205,-0.8060163,0.61016476,0.08150433,-0.94574845,0.009746541,0.79925346,0.8232616,0.52224773,0.29951942,-0.54330784,-0.21078299,0.67919075,-0.9944937,-1.0005589,0.17947677,0.20519441,0.16523895,0.9580935,-0.08187051,0.5154581,0.50267965,0.381649,-0.9373426,-0.16755635,-0.7750159,-0.6520682,-0.7697967,0.87725157,-0.32580367,-0.8474832,0.13041362,0.72181755,0.90359086,-0.2688613,-0.6491329,0.29012293,-0.53537333,0.28063592,0.036647968,1.0241133,0.25508073,0.53023165,0.61394143,-0.009900229,-0.01570339,0.924651,-0.2551319,0.5510669,0.052959647,-0.9252643,-0.59123194,1.0048318,-0.68831223,-0.30859783,-0.2385455,0.013874174,-0.039760802,-0.58177173,0.85039943,-0.5189443,-0.87432736,-0.81807023,-0.21732618,0.22220238,0.14624563,-0.10721534,-0.991902,0.9886712,0.9282055,-0.25299805,0.89783597,0.2882036,-0.931817,0.5356664,0.72879344,0.98652655,-0.43395627,0.75462437,0.67242515,-0.67656803,-0.5586318,0.7751353,-0.35747907,0.22867393,-0.2921478,-0.48951343,-0.20074797,-0.33070153,0.46353358,-0.48170766,0.6164132,0.7664804,-0.058798615,0.37517455,-0.9813105,0.9164064,-0.9634601,0.20415129,0.0745879,0.224823,0.65164566,-0.16546865,0.4918799,-0.38004524,-0.50093734,-0.66178757,0.5149347,0.60407037,-0.788136,0.83404374,-0.16144913,-0.24493296,-0.50606704,-0.47754773,0.0732408,-0.5296495,-0.31840694,-0.8900123,-0.54779285,0.68534327,1.0294735,0.6525878,0.105422124,0.47743028,0.061586346,0.60313547,-0.34437308,-0.32202,0.5231653,0.93036526,-0.6675844,-0.8513082,-0.25922868,-0.109499425,0.05110677,0.5439392,0.9225121,-0.49607822,-0.6123155,-0.17267808,-0.62689537,-0.36767843,-0.28213176,0.24170993,-0.5577012,0.048980977,-0.84648776,-0.93386966,0.20180134,0.9118883,0.7755398,-0.8255709,0.4036238,-0.105391584,-0.39696345,0.7796939,0.58751214,-0.37157786,0.5602956,-0.06173855,0.37821147,0.17146318,-0.82572055,-0.16132092,-0.82542354,0.8514571,-0.8610492,-0.12933066,-0.44365907,0.5309161,0.90793025,0.11236754,-0.86786747,-0.19169812,-0.80610806,-0.8239377,-0.82469404,-0.594943,0.60615295,0.46089855,-0.29801828,0.20609602,0.11182353,0.44240502,-0.6029979,-0.5917882,-0.92107195,-0.5705759,0.3178029,0.37690878,-0.760614,0.4218312,0.25761837,0.6582158,-0.527019,0.9489739,-0.030991156,-0.084913455,0.67986864,-0.9102332,0.103034645,-0.9633462,-0.12462736,-0.09852513,0.42256835,0.067879856,0.2673979,0.5909958,-0.034148663,-0.48694783,0.85554236,-0.4134374,0.7128687,0.5872404,-0.29255545,-0.47874948,0.7943974,-0.9752737,0.14621817,1.0041317,0.7805598,-0.2272874,-0.38595623,-0.86800313,-0.40817901,0.993196,-0.19915093,0.73948056,-0.29215652,-0.7208609,0.4874951,-0.83168477,0.17319496,-0.4950215,-0.030328,0.07065266,0.2227047,0.3184298,-0.1368472,0.6756647,0.8830043,-0.37823933,0.95679003,-0.07792946,0.0033974804,-0.7642991,-0.94742423,0.9980853,-0.1897448,0.37307587,0.29092246,0.20176712,0.81853753,-0.20436938,-0.45292643,-0.9149056,-0.38297477,-0.4054954,0.93828326,-0.9210843,-0.71151376,0.21410425,0.051096823,0.52385867,0.97831184,0.8381203,-0.54244024,0.91698223,-0.2594572,-0.81900096,-0.407996,-0.4441003,0.07012488,-0.19116423,0.46757802,-0.1226361,0.5912601,-0.13539669,0.08696888,0.651649,-0.9985679,-0.85245794,-0.03906675,-0.56579775,0.93179554,0.64763063,0.29539454,0.039368186,0.46126944,-0.7066867,-0.106099546,-0.70884067,0.6217765,-0.41423059,-0.9447386,-0.98961574,0.08997941,0.8163226,-0.3631383,0.19050965,-0.39613873,0.8261302,-0.80657,-0.09972382,-0.0033995803,-0.33315983,0.1730067,-0.65140665,-0.78539515,0.47055775,0.08739159,0.7533088,0.5598909,-0.23339371,-0.8727706,-0.30226076,0.05577742,-0.017687371,0.5569593,-0.018735705,-0.259764,0.51715076,-0.7932562,-0.49510393,0.66550785,0.7170566,0.029384099,0.9775349,-0.5155832,-0.35138452,-0.7608633,0.30553782,-0.5121511,-0.4128617,-0.2940511,0.73735875,-0.3887533,0.15783906,-0.8456433,0.073211454,0.0048916508,0.058790762,-0.103793144,0.07956281,0.20561765,-0.19750938,-0.25542033,-0.85467726,0.5515235,0.4509711,-0.47528443,0.7394943,-0.3297526,0.017888317,-0.9734273,0.24485336,0.4274659,-0.13450642,0.58308226,-0.8146974,0.37357602,-0.7173775,-0.30365705,0.7718049,-0.0819215,0.3829692,-0.38660935,0.27631736,0.28813115,-0.4092353,0.631988,-0.651283,0.022529457,-0.43527204,-0.20385966,0.82391405,0.7087905,-0.77698064,-0.845373,0.92083067,0.38581872,-0.8590393,0.49462885,0.09742538,0.8526515,-0.39166355,0.06565843,-0.9186196,0.9465959,-0.0026867723,0.7256631,0.8608572,-0.1466402,-0.25763488,-0.8569065,0.166251,-0.039710402,0.05854381,0.45043883,0.4314209,-0.486472,-0.4330694,-0.12834632,-0.23354858,0.46132717,-0.4616434,0.030973209,0.09358254,0.5275993,0.6251615,-0.43453732,-0.38042697,-0.112869635,0.1371638,0.60094076,0.04786631,-0.010367558,0.007878728,0.36861137,-0.41212687,-0.25380495,-0.9547704,-0.23422045,0.7997278,0.859234,0.17045927,0.6768575,-0.5140526,-0.21700972,0.5198225,-0.6784037,0.52933425,-0.43237165,-0.37066317,-0.2573544,0.56906384,0.4837603,-0.66993916,0.12827021,0.16387261,0.79029757,-0.2914349,0.60265493,-0.6851366,0.88980925,-0.9392688,-0.4014168,0.7788393,-0.91190827,-0.3688181,0.79033554,-0.5944247,0.7805297,0.6249608,0.9294125,0.06561147,-0.6881175,-0.78762335,0.5744661,0.69184077,-0.38554543,0.97435343,-0.82306767,0.66445667,0.42854682,0.006988111,0.6087299,0.07544077,0.52451414,0.46270734,-0.050579466,0.8605922,-0.64066774,-0.36693996,0.68881154,-0.15971136,-0.75372475,0.61289054,-0.020909976,-0.58709925,-1.0527213,0.5439533,0.014820129,-0.6882987,0.33825767,0.86275077,-0.9105782,0.17696628,0.17877255,-0.26586676,0.81998414,0.5366378,0.14396179,0.68648624,0.2005678,0.14168091,-0.9191876,0.3178377,0.91012776,-0.750595,0.012419007,0.32151026,-0.8450884,0.86735195,0.553135,0.95787096,-0.67239344,0.9336057,-0.84607184,0.17359383,0.7629316,0.8522559,-0.24321675,0.0199029,0.72795504,0.29082966,0.42822635,-0.577447,0.012755556,-0.109785765,0.58458626,-0.61354375,-0.18161693,-0.56347436,0.5796653,0.67719156,-0.6907972,0.5965187,-0.78317773,-0.16592143,0.287884,-0.4220894,-0.1840381,0.56593096,-0.9017457,-0.8158747,0.9351884,0.10312319,0.09031258,0.051081885,-0.040957276,-0.15196176,-0.045235466,-0.30394724,1.0590903,0.41450825,-0.88259846,-0.6295678,0.22962509,-0.1221269,-0.4872433,-0.41638592,-0.6535625,0.45897415,-0.29315114,-0.00592795,0.024297182,0.06958803,0.43591714,0.7872886,-0.25048143,0.53826934,0.28038558,-0.98622876,0.650109,0.6181898,-0.7571141,0.45490602,0.749217,-0.18595044,0.18578458,0.73450255,0.28267634,-0.7307105,-0.741689,0.79873866,0.5802272,0.2811647,0.3998185,0.06080576,0.545257,-0.53460276,-0.9629015,-0.56423527,0.15647198,-0.2129236,0.34616962,-0.31935748,-0.88207406,0.2504823,0.4134721,-0.8767248,0.60748106,0.0144112,0.35324648,-0.23120895,-0.38416725,0.64773506,0.7648716,0.99011195,0.63617104,-0.5906997,0.17457469,-0.0013769345,0.9153894,-0.7629324,0.6842516,0.34062773,0.3602769,0.6221119,-0.7082242,0.55882543,0.3502338,0.7064971,-0.95057863,0.3569581,0.55979854,0.96309966,-0.38689286,-0.16158345,0.29924965,-0.12260793,-0.1339783,-0.1980473,0.95701283,-0.90786177,0.12412767,-0.33569765,-0.8764561,0.923277,-0.124624945,0.58788544,-0.09677386,-0.09299776,0.8720938,0.97973096,0.8084506,-0.98682,-0.00085005746,-0.7941383,-0.5410862,0.38673908,-0.63467324,0.18175456,-0.47421858,-0.63394094,0.6523671,-0.9091583,0.84632313,0.19759563,-0.52527696,-0.10716147,-0.47118166,0.8496471,0.24614497,0.44980073,-0.50489706,-0.26770487,-0.4776842,0.21112491,-0.5853928,-0.39987746,-0.48818612,0.35228294,0.11712331,0.80404,0.37924397,0.15471227,-0.27476755,-0.5192446,0.44563293,-0.8385522,0.2866279,-0.12539986,0.05532569,-0.99171245,-0.06136154,-0.1294787,-1.0018532,-0.8277308,0.12232651,0.54916346,0.11212297,-0.61214113,-0.30866033,0.21875589,-0.049189515,0.43076923,0.2814989,0.037921697,-0.39856178,-0.72010815,-0.023107193,0.15680529,0.2845239,0.74852496,-0.83460015,-0.5606816,-0.09056195,-0.4903829,0.96299547,0.31263214,-0.13753143,-0.10907765,0.18029308,0.4937417,0.26643434,-0.819225,0.8113576,-0.26726872,0.6430071,0.73479897,-0.96363544,-0.09842123,0.74056447,-0.9483299,-0.53893536,0.3203135,-0.2484229,-0.35952714,-0.92406595,-0.59725344,-0.9335929,-0.4301009,-0.7915246,-0.46172217,0.093060195,0.18846056,-0.5155939,-0.07432115,-0.02004365,0.98715186,-0.5261369,-0.23148629,-0.64880466,-0.8833848,0.163024,-0.93033683,0.07176642,-0.047631916,0.63603324,0.88141674,-0.8667897,-0.13687295,0.6967814,-0.32305095,-0.64392084,-0.44292134,-0.08175132,0.3515058,-0.25128543,-0.78079855,0.2724345,-0.65681297,0.96544135,0.08027311,0.45593092,-0.33989087,0.55219597,-0.10080124,0.72371536,0.71979755,0.9696926,-0.8177412,-0.82126,0.8688189,0.14234215,0.3866172,0.6527989,-0.3372283,-0.2266757,0.08843296,0.14847997,-0.0357419,-0.70702904,0.06037131,-0.2276973,-0.92464066,0.6352134,-0.53325486,-0.0138225695,-0.5587936,0.32884046,0.76403004,0.83131534,0.66084754,-0.2061996,-0.41394678,0.65542233,0.18020493,0.8477476,0.5369384,-0.06901401,-0.38456336,-0.5983897,0.65230715,-0.77380186,0.04932633,0.14821745,-0.49779275,0.23567925,0.66901296,-0.903333,0.6946504,0.7399251,-0.9895724,0.5830135,-0.43279797,-0.5962987,0.5822679,0.38699228,0.81441927,0.407479,-0.05561039,-0.0808262,0.49786264,0.99326056,-0.17037155,-0.7372152,0.37725428,-0.19361353,-0.44395638,0.72215873,0.77866226,0.17410453,-0.21382794,0.3978053,0.7541367,0.6152405,-0.58601445,0.19504437,0.64323026,0.4766282,-0.5680241,-0.9028046,-0.191299,0.16859213,0.13153422,0.09161274,-0.55688316,-0.16455054,-0.22669218,0.8554601,0.54524565,0.2998608,0.8956544,-0.11554436,-0.82797664,-0.18006235,0.14287664,-0.9216908,-0.28132635,-0.69260705,0.2714203,-0.18305738,0.9724944,0.64464766,0.9615385,0.7356072,0.9413389,-0.959947,-1.022248,-0.1336132,0.35944763,0.12716977,-0.97016966,0.15147449,-0.6002835,0.57749146,-0.65389764,0.21272941,-0.37824664,-0.2788165,-0.17686492,-0.5109542,0.047335204,0.46300483,-0.13999978,-0.29962614,0.52137715,0.24450684,-0.8497768,0.38956168,-0.11756521,-0.3307339,0.46013817,0.501108,0.4792869,-0.031430308,-0.24244964,-0.5819363,0.6808453,-0.040521745,-0.26998246,0.7031571,-0.13324441,0.66969234,0.3104409,-0.7722314,-0.84422725,0.87399614,-0.25945184,-0.65181756,0.72522855,0.37501606,0.20890264,-0.24765116,-0.81349915,-0.55808634,0.19576946,-0.73095125,-0.32833692,0.78147584,-0.2721232,0.62953967,0.0016325158,0.32113948,0.13701673,0.7300625,0.18158117,-0.4105717,0.15180482,0.49650645,-0.40437055,-0.80914176,0.7163025,0.3384164,-0.6483932,0.8265099,0.61222374,0.34761083,-0.23746333,0.1917907,-0.35954276,0.9610394,-0.6547539,0.53754324,-0.856179,0.77722806,-0.55193645,-0.65799814,0.27023897,0.980841,-0.60429275,-0.44610983,-0.47990704,-0.9290311,-0.60372984,0.05904399,0.39155912,-0.29164127,-0.31297195,0.25872746,-0.3392662,-0.5585692,-0.8365917,0.07834545,0.47101122,0.9008362,0.8691985,-0.38717374,0.9108116,0.90500104,0.9095214,0.15613651,-0.24717215,-0.71666867,0.42685494,0.86783403,-0.26264864,-0.569727,-0.65255976,-0.36438674,-0.5115822,-1.0114677,-0.22579116,-0.078676425,-0.23740546,-0.37110555,0.21154921,-0.97200984,0.59437466,-0.28594002,0.03841572,-0.8473537,-0.25581536,-0.27577156,0.01639514,0.7450354,0.42163634,-0.294014,-0.65686756,-0.9787269,0.97787446,0.07256565,-0.29072565,-0.08672975,0.50301623,-0.5600833,-0.390086,0.77626187,0.9588867,-0.31030545,0.25699428,0.69964904,0.46297985,0.25366527,-0.12153233,0.919248,-0.4547344,0.91523874,0.15729909,-0.051484484,-0.7741395,-0.08019628,-0.35129333,0.7522309,0.989463,-0.7537437,-0.70506096,0.9910651,0.2400538,-0.041793026,0.63023835,-0.7140551,-0.5808606,-0.5880216,-0.9290274,-0.5915173,0.5188082,0.5025829,-0.4779799,0.99345833,-0.98494834,-0.29987732,-0.6496492,-0.3890205,0.99250174,-0.5309887,-0.38997546,0.1812981,0.6444105,-0.43228143,0.19212444,-0.28682283,0.19326924,-0.26605952,0.9403239,-0.6773334,0.12106156,-0.4396739,0.14619486,0.24322456,0.793667,0.076959535,0.9399658,-0.6928476,-0.28365684,0.7808918,-0.8037615,-0.89732677,-0.27953202,0.55189824,0.8642093,-0.5754009,0.57819146,-0.8876436,0.9163307,-0.91275835,0.77419645,-0.7334083,0.37018088,-0.78776526,0.20459342,0.122058466,0.55953753,-0.14971466,-0.8441043,0.14222383,0.62698984,-0.19245234,-0.16895021,-0.470374,0.1649225,-0.28547317,-0.947323,-0.9909807,-0.19384202,-0.9684456,0.12179612,-0.44727057,-0.40486166,-0.49792403,-0.5442539,-0.03154427,0.12134718,0.9628724,-0.80699354,-0.902294,-0.036495574,-0.7811795,0.16428655,-0.09085218,0.49655774,0.17074914,-0.049811866,-0.6567259,-0.15930597,0.3003586,0.73204076,0.78316146,0.19860487,0.94210404,-0.035259545,0.28924504,-0.5286303,0.109754995,0.20228896,0.79780823,-0.93481845,0.09613226,-0.3408129,0.19121385,-0.08817992,0.9291604,0.5035497,0.3067116,-0.29683244,-0.51858205,0.80894226,0.14531928,0.3955568,-0.6775315,0.61257964,0.06492031,0.49622223,0.8433719,-0.7451854,-0.59369415,-0.16638935,0.8582439,0.8206471,-0.89288914,-0.6991191,0.015734693,-0.08163575,0.9007774,-0.03166185,0.7285341,0.41554743,0.4754366,0.5442916,0.61829937,-0.6540066,-0.97913885,0.9106294,0.6493884,0.17696555,0.2153253,-0.036187142,-0.271179,-0.6746651,0.4184371,-0.68312556,-0.27638263,-0.5354051,-0.7547234,-0.37913924,0.50001323,0.040896107,0.9947698,-0.59412825,-0.4929867,0.6911982,0.5444197,-0.30431503,-0.9899327,0.55672127,-0.8413972,0.90682083,0.39212167,-0.8651537,0.8098001,-0.050715573,-0.42552486,0.79804325,0.93752736,0.97437245,-0.8107309,-0.18821114,-0.4285101,-0.38769525,0.08748809,0.16692363,-0.6196547,0.16810395,-0.698354,-0.35137975,0.60912085,0.057461802,0.8107655,-0.4674118,0.45786244,-0.35919228,0.48413274,-0.826107,-0.058699276,0.5344692,-0.48051935,0.07420147,-0.3122267,0.07946473,0.8632745,0.38068756,-0.4008572,0.71108687,0.7871336,0.17978439,0.16592897,0.105493836,-0.5231273,0.8827172,0.870813,-0.120962396,0.7770916,-0.58366615,0.62723935,-0.19399974,0.5778582,0.9308036,0.8904194,0.66636986,0.18703195,0.721676,-0.80515814,-0.9013735,-0.59945,-1.0158336,-0.41071042,-0.053878196,0.23884833,-0.7623565,0.21375649,-0.5460955,0.29008633,0.5961685,0.86622614,-0.9825628,-0.72995317,-0.90643823,0.6834796,-0.6091242,-0.9167248,0.6735514,-0.4277383,-0.630328,0.22974028,-0.0699074,0.8939201,-0.5448887,-0.82259274,0.005952244,-0.9522892,-0.3457306,0.3241618,0.731069,0.37800336,-0.76166856,-0.29153177,0.017771019,-0.86474365,0.16944039,0.6744228,0.046635546,0.23374708,0.22294554,-0.28738225,0.75587535,0.4039687,-0.45470616,-0.4264388,-0.37075377,-0.65282226,-0.84953827,0.6177768,0.44114295,-0.0695701,-0.107513,0.75225675,-0.1874615,0.3918741,-0.36444774,-0.030164275,0.25219423,-0.30617106,0.006311077,-0.42339575,-0.5518172,0.7620495,-0.20834862,-0.58103293,-0.258941,0.90486157,0.36548775,0.9784778,0.6148034,-0.52078414,-0.07877233,0.9349533,0.24577537,0.7164668,-0.9525386,0.9887043,0.8491327,0.04050852,-0.19969726,-0.8291251,-0.14234036,0.39816183,-0.50656104,0.63058627,-0.065721296,-0.7168411,0.8214697,0.886873,0.75977886,-0.30670202,-0.010737189,0.39796847,0.10539574,0.35897192,-0.5982088,-0.65617657,-0.33529708,-0.059874278,-0.30361223,-0.24806671,-0.30849916,-0.5397679,-0.6180382,0.9681103,0.38443938,0.76357794,0.4698378,0.44577825,0.49960047,-0.46708044,0.022965167,-0.47628126,-0.17338496,0.6984736,-0.52414584,-0.055546753,-0.4047568,-0.91009974,-0.543928,0.66095585,-0.5053338,0.44608027,0.9098874,0.9499261,-0.42641848,0.42198503,-0.30566025,0.67239827,0.30699107,-0.77090997,-0.37261465,-0.61613953,0.55467796,0.9631398,0.8512894,-0.061461806,-0.23760141,0.3364728,-0.8312022,-0.9972719,0.4347195,-0.38499588,0.20744537,-0.044279423,-0.29167718,0.80400217,0.13603325,0.60910857,0.23980303,0.7115024,-0.41567674,0.7185829,-1.0150492,-0.19238734,0.30374873,-0.6893403,0.65295684,0.55526096,-0.24279244,0.24960355,0.80680436,0.008956644,0.26406118,-0.6082252,0.31267262,-0.13342433,-0.07569414,0.37476775,-0.96301734,-0.64263046,0.87561256,0.9046157,0.5828226,0.55004543,-0.71883607,-0.18732587,0.14687416,0.09968837,0.8555784,0.1729312,0.5668676,-0.6774941,-0.14889355,0.87464035,-0.25367746,0.39231998,-0.46231335,0.47253323,0.44531694,-0.10727368,0.2015651,0.42770135,0.32238117,-0.3888944,0.053729206,-0.7077889,-0.044609375,-0.55079633,-0.85906756,0.36203325,-0.47621208,0.3013947,0.5816636,-0.66482157,-0.69277614,-0.34993407,-0.266711,-0.29877225,0.9281456,-0.008221083,-0.45621035,0.3179253,0.9283064,-0.39548314,-0.56368846,0.9820073,-0.7218097,0.46290153,-0.6964705,-0.45830092,-0.3221545,0.4456857,-0.2517347,-0.9043389,-0.13246323,-0.38275954,-0.21915404,-0.77741235,0.5741131,-0.28174707,0.70947945,-0.9916936,0.9237954,0.6135824,-0.5371239,-0.11561326,-0.4004686,0.48965013,-0.16576664,-0.7686255,-0.34774783,-0.49914977,-0.103428505,0.9564975,-0.08547709,-0.7012607,-0.6406517,0.82394844,0.122897334,-0.2408872,0.22354195,-0.9637366,-0.80603164,-0.3774627,-0.6854446,0.7391837,0.13102783,-0.9592857,0.028253514,-0.64962375,-0.48953098,0.6560985,0.1989632,-0.351469,-0.94692296,0.9148093,0.34525222,0.44676325,0.8692746,-0.0830443,-0.8767196,-0.11041188,0.19977151,-0.48607638,-0.12329076,-0.17092268,-0.78349006,0.1507385,0.95408666,-0.10370419,0.9466811,-0.71178013,-0.72751814,-0.7517548,0.65973485,-0.27999294,0.2571534,-0.2536257,-0.70105857,0.4589167,-0.74800265,-0.007555565,-0.11621594,-0.7259129,-0.8630289,0.7054773,0.5988613,0.7394218,-0.89169204,0.5662429,0.625908,-0.692551,0.060615253,-0.31520072,-0.66824025,-0.43261555,0.8886771,-0.41540155,-0.5723488,0.15899505,0.146236,-0.8068207,-0.9715759,-0.14658676,0.2575489,-0.38743144,0.84854597,0.07831352,-0.64105165,0.68935627,-0.2933405,0.88747656,-0.7076807,-0.777793,0.721313,-0.5738817,0.34913978,-0.5858534,-0.2136534,0.98261154,0.21000193,-0.6948244,0.3620197,0.38673678,0.49399915,-0.075805426,-0.66951394,-0.37562597,-0.9174512,0.5406844,0.81921434,0.7531427,-0.7484385,0.54951954,0.70179534,-0.5293353,0.34428036,-0.9666876,0.3578423,-0.15806821,0.1930958,0.18822639,-1.0078114,-0.51215637,0.28943208,0.9555152,0.43674842,-0.4540949,0.29200253,0.8702415,0.8251948,0.50858766,-0.3245853,0.42496392,-0.7673913,0.80842614,0.8669524,-0.048109204,-0.37308136,0.69297594,0.6722673,0.4533862,0.14437969,0.23598336,-0.85441077,-0.22506315,0.1717115,-0.39679858,-0.055155456,0.68310887,-0.21995685,0.672296,0.045837507,0.9556966,0.70469695,0.31708223,0.1601341,0.37415493,0.017969111,-0.44519717,0.61004835,-0.59832853,0.9196225,-0.5658016,0.9734678,-0.9020984,0.07506689,-0.30590484,-0.56160945,-0.5616037,-0.4970762,-0.7622301,0.86061305,0.32903773,-0.5343932,0.2990594,-0.7854753,-0.2997705,0.3196143,0.5479368,-0.9406751,-0.5079542,0.6592549,-1.003864,-0.96111864,-0.7296437,-0.069419935,0.05725264,-0.9325344,-0.8690368,-0.95087993,0.83044475,0.13142084,0.8658403,-0.08995595,0.19335091,-0.7784937,-0.28899366,0.3450214,0.06281025,0.6764004,0.65493387,-0.73796606,-0.10536714,0.9128616,-0.2088313,0.28055936,-0.26244336,-0.13054891,0.076899976,0.13291377,0.29621822,-0.45011565,-0.3907583,0.2653806,0.93692255,-0.43294978,-0.6688811,0.8252096,-0.96152306,0.48167217,0.20633876,-0.52811784,-0.23306075,0.48030195,-0.44300818,-0.70775753,-0.91800505,0.69019735,-0.33444697,0.965898,-0.2633657,-0.5551798,0.5861174,-0.7094926,-0.34428117,-0.7811496,-0.93848693,-0.9805146,-0.8288692,0.47997046,0.01636547,0.4678893,-0.5012404,0.51168114,-0.3451015,0.3209501,0.22430195,0.626137,0.035479087,-0.6498254,0.295232,-0.5208628,-0.31919676,0.0755943,0.30246338,-0.3654844,-0.025052315,-0.16913332,-0.4326374,-0.7435017,-0.5608521,0.88577133,-0.028393142,-0.4053377,-0.68707,0.7753968,0.8589438,0.3271496,-0.028117232,-0.5529309,0.19261536,0.9335952,-0.02598752,-0.095388375,-0.6543608,-0.95833206,-1.0126013,-0.24100244,0.7805318,0.3028837,-0.0834815,0.5075187,-0.73446465,0.23498626,0.91638213,0.82442474,0.3655216,0.041317027,0.75424546,-0.088845395,-0.7801828,0.58341336,-0.5708834,0.4905523,-0.84888643,0.90064275,0.596167,-0.2752274,-0.5263742,0.25084448,0.27132228,-0.21074402,-0.20347205,0.72090983,0.07983349,0.6554753,-0.38677934,-0.9425542,-0.2575815,-0.71960413,-0.45465353,-0.34511793,0.12290293,-0.6843751,0.5859567,-0.9526547,-0.07272149,-0.4551176,0.5724154,-0.13601075,0.22333989,-0.78299314,-0.2893257,0.72649336,0.95086634,0.23528531,-0.71411866,-0.55282617,0.5572322,-0.9463625,0.39930362,0.30097824,-0.4609949,-0.6268635,0.35742494,0.61937255,0.44718483,-0.106046386,-0.50531584,0.39716578,0.65927345,-0.47122142,0.20943764,-0.6157927,-0.5455914,0.74492764,0.33198017,0.9734959,-0.7320791,-0.0380753,0.64084256,0.040797982,-0.84978265,0.6435499,-0.2483648,0.5043131,-0.55500567,-0.79086,-0.59194547,0.7690494,0.06504452,0.87806153,-0.2557993,0.9454417,-0.12804858,0.15923789,0.5345915,0.065923244,0.42315856,-0.08888927,0.30441368,0.700789,0.85256135,0.7598649,-1.0168401,-0.26687238,0.3826118,-0.77423733,0.4053345,-0.22286825,-0.57143486,0.7609508,0.7933931,-0.209024,-0.74995553,0.22201128,-0.3312271,0.4675228,-0.4347254,-0.30723402,-0.26639953,-0.88960934,-0.7361988,0.35875762,0.3907041,0.110214725,-0.476879,0.7525843,-0.53964734,0.009604759,0.81671613,-0.73488915,0.6086935,-0.39966822,-0.5117358,0.31039283,-0.27204475,-0.09056756,0.6551781,0.9628118,0.055002645,0.93779105,0.75343543,0.36819908,-0.4041842,-0.18916784,-0.091213636,0.036028963,0.041508496,0.17536256,-0.10544434,0.23502854,0.8394178,0.8082744,-0.07338266,-0.42950585,0.50419337,-0.2926076,-0.52614415,0.3409004,0.8603787,-0.48747677,-0.15148556,-0.278422,-0.94270897,0.8506163,-0.32753778,0.23469438,0.069811285,0.34358254,-0.34811166,-0.94401634,0.045804095,-0.27096352,0.51594216,0.3068447,-0.2963724,-0.877176,0.098428346,0.83718926,0.96570474,0.786728,-0.74834174,0.7759393,0.06905618,-0.9652991,0.7890491,0.4890003,-0.74531645,0.2582963,-0.16666956,-0.20287295,-0.9461122,-0.09050904,-0.21980594,-0.6701389,-0.7793496,-0.6900168,-0.5936774,-1.0140162,0.7179358,-0.569857,0.6483383,0.7778911,-0.017730437,-0.051436674,-0.854451,-0.63806707,-0.8868094,0.41907445,-0.854631,0.20617306,-0.0012334752,0.4251217,-0.79030263,0.3417319,0.59864366,-0.45285723,0.86299735,-0.39010033,-0.048847057,-0.67509663,0.36175823,0.42895207,-0.55333656,0.3172182,0.87250805,-0.28435075,0.30835128,0.24688111,0.8715459,-1.004869,-0.6819976,-0.30375242,-0.9304197,-0.66807705,-0.707512,-0.35974452,0.65654117,0.5183685,-0.9996723,0.9178125,0.41358617,0.52038676,-0.5556449,0.8587995,0.3547595,0.90509856,0.880267,0.14704901,0.6779008,-0.5045726,-0.82067245,-0.28335086,0.56241935,0.26114586,0.17186612,-1.0199485,-0.020058665,-0.527084,0.34560946,-0.33988616,0.23651125,-1.0019894,0.35304853,0.8187802,-1.004732,-0.027251162,-0.6040201,0.95173025,-0.74569136,-0.84096724,0.79935515,0.28068188,-0.5509203,0.96912634,-0.14077112,-0.4337893,0.3140453,0.3188069,0.048432298,0.5813958,0.26029265,0.1669533,0.3090357,0.46243045,-0.15737647,-0.6665321,0.002351155,-1.002782,0.9655101,0.25616118,0.7866663,-0.836569,0.7248776,-0.18290056,-0.08545424,-0.7727704,0.4924308,0.46087798,-0.5726714,0.7104812,-0.8489929,0.67706686,0.7015749,0.9341276,-0.70792264,-0.41925678,0.5656319,0.15480995,-0.5843721,0.3559198,0.613623,0.2148576,0.6373899,-0.0045785,-0.14381325,0.037111145,-0.18421501,0.6112804,0.8056493,0.5159967,0.2751427,-0.9883879,0.16752248,0.8071845,0.24082853,-0.06369709,-0.01688825,-0.6473484,0.51138514,0.9327531,-0.97700036,0.92890084,0.91413164,-0.7929645,-0.4905504,-0.88778746,0.15883157,-0.111914165,0.83428395,-0.26234946,0.96314,0.470948,0.9181623,0.5088656,0.35705653,-0.040982902,-0.31614354,0.4970621,0.5735352,0.23923725,-1.0092943,0.38519332,-0.5079161,-0.63934404,0.069775,0.9012919,-1.0184706,-0.99808854,0.49754465,-0.9739386,0.18408668,-0.6460882,0.26617512,-0.18409038,0.19908129,-0.8964091,-0.21854103,-0.023443654,-0.44187632,0.46597528,-0.67826235,-0.44975564,-0.66407025,-0.46286395,-0.19152951,-0.84730875,-0.29587203,0.1637969,0.16021481,0.3820503,-0.63331145,0.5312509,-0.43055058,-0.39270407,-0.39540154,-0.61646444,-0.9549849,-0.26605934,-0.0542315,0.554765,0.7229288,-0.3481286,-0.6417823,-0.15704095,0.3294994,-0.7057701,-0.40628523,0.6317229,0.37771183,-0.8847293,0.42905578,0.5378513,-0.29033574,0.49860826,-0.5699096,-0.98480296,-0.29012552,0.46334994,-0.3589552,-0.17207427,-0.16267553,0.71754247,0.6823931,0.017412096,0.6176438,-0.9869363,0.07361113,-0.286393,-0.08668611,0.112592414,-0.46110693,-0.2619517,-0.11989821,0.8407625,-0.8473804,0.98393446,-0.7920736,0.97863495,0.050938502,-0.82570815,0.13907261,-0.3614904,-0.74005693,-0.2796854,-0.3318087,-0.08564641,0.6978251,0.06350134,-0.17649841,-0.26250318,-0.6658356,0.42916274,0.09131021,0.3651343,-0.64297366,0.37591848,0.094264284,0.46689588,0.8332469,0.97006106,0.3244087,0.3339102,-0.8474751,-0.40431952,0.26061836,0.7593965,-0.6562407,-0.6903015,0.10710827,-0.1023191,0.13966474,-0.28130066,-0.8830445,-0.19785626,0.23679824,-0.9088847,0.7014233,-0.5156008,0.67119867,-0.33364826,0.86430836,-0.5951469,-0.877105,0.52552986,-0.665232,-0.62295544,-0.28662243,0.6155117,0.009729511,-0.16441897,0.9243735,-0.20835495,-0.8068729,0.28517047,0.85489917,0.84458196,-0.13340268,-0.7209108,0.9642022,-0.36618778,-0.99377304,0.15661535,0.7894721,0.3406495,-0.8844823,0.8276696,-0.027867636,0.38438368,0.85779124,0.92503864,-0.78418416,-0.5888192,0.2129526,-0.275862,-0.27176207,-0.6168759,-0.55767226,-0.42491758,-0.8124886,-0.27303606,0.36655653,-0.69545543,-0.33676377,-0.7453157,0.8766639,-0.49299693,-0.7988308,0.69401455,0.21101138,0.8543192,-0.5021385,0.298224,-0.827492,0.13500166,-0.3695021,-0.3318702,-0.11374126,-0.9749135,0.44826353,0.7452744,0.38681516,0.550952,0.068730235,0.06402585,0.6212015,0.38612607,0.039332367,-0.09242121,-0.7097507,-0.3280304,0.43616802,0.7238305,0.8011668,-1.0006906,-0.431106,-0.33340782,-0.033553254,-0.51074976,0.3942418,0.684308,0.24500456,-0.173609,-0.525869,0.27745405,-0.009774166,0.12363356,-0.5704789,-0.8290613,0.55247265,0.40066087,-0.60640717,0.27393186,0.16664153,0.4501679,0.51002264,-0.79061717,0.09911459,0.3827259,-0.3637439,-0.4181903,0.7067711,-0.9377235,-0.45331016,-0.46833217,-0.9911459,-0.53840965,-0.16495115,-0.015029232,0.1737404,-0.117848635,-0.93608916,0.077041194,-0.6637786,-0.22316876,0.25260118,-0.6690565,0.102786444,-0.6283406,-0.73491764,-0.33230892,-0.7147016,0.9901654,-0.95265776,0.4177004,-0.21416184,-0.40232718,0.11877907,-0.6535453,-0.13377196,0.45639,-0.9634425,-0.8681178,0.40810266,-0.051283833,0.91962445,-0.81070215,0.48773146,0.92595994,-0.15800788,-0.67264056,-0.44312358,-0.5353412,0.105882995,0.24529845,-0.3238266,-0.9463359,-0.9014291,0.77831143,-0.59640366,0.6355932,-0.976766,-0.009821688,0.66289616,-0.5983752,0.12946664,-0.08944683,0.6819875,-0.013957572,-0.24448444,-0.70848167,-0.7283075,0.6053939,0.9357972,-0.1481503,0.98448044,-0.49193716,0.48043734,0.07032653,0.36275685,0.3512894,0.83447474,-0.7354016,-0.44378147,0.7057456,0.34608895,-0.15314867,0.9161357,0.72778964,0.5075665,0.7633646,0.9127745,-0.3809569,-0.4874671,0.39719793,0.7706594,-0.03375888,-0.70885664,-0.2676783,-0.184441,-0.7805505,-0.65209705,-0.16041058,0.222176,-1.0090714,-0.72146803,0.21636333,0.2855937,-0.50699043,0.09962251,0.61598974,0.47461635,0.5709368,-0.74646753,-0.5210184,-0.61189663,0.03784735,0.686604,0.4888534,-0.4012303,-0.3869194,-0.057339072,0.03060527,0.5370499,0.8314734,0.6966591,-0.5311581,-0.9526751,0.3031582,-0.11549595,-0.7282729,0.014223167,-0.351544,-0.8412937,-0.1425396,-0.21373595,0.7493104,-0.26525864,0.66594195,0.47091424,-0.50273794,-0.45339006,0.810074,-0.32804498,0.23611702,-0.899292,-0.80859464,0.021127682,-0.58414286,0.92452914,0.97158253,0.43248117,0.63705677,-0.07252577,-0.11254505,0.6125099,0.44723007,0.9428505,0.21861018,-0.50237155,0.053193122,-0.21451318,0.19551502,0.024305204,0.7026419,-0.23401485,0.3127711,-0.17711614,0.30913734,-0.28716785,0.2893463,-0.16579056,0.012377586,0.12486243,0.3242523,-0.83116746,0.3257927,0.51181793,0.52788305,0.37130782,-0.5338702,-0.17547244,0.09106815,0.51874053,-0.8755388,-0.23368807,-0.42610794,0.356522,0.19699691,0.81467855,-0.8636273,0.04801796,-0.8069631,-0.88994104,0.0035653196,-0.37672278,0.019378258,-0.8958787,-0.30038714,-0.95051247,-0.7672803,0.78265005,0.25773183,-0.9604906,-0.82521856,-0.9362478,0.25471523,0.43414798,-0.52648574,0.15871437,-0.75444037,0.11841234,0.81885874,0.4099528,-0.27553418,-0.73673093,0.25703618,-0.10961684,-0.57332826,-0.42184561,0.6685044,0.6259295,-0.44140124,-0.519324,0.6802963,0.92317057,-0.9158986,0.34737793,-0.06403919,0.31103158,0.63839275,-0.625103,0.8681729,-0.13243678,-0.60088855,0.107803755,-0.103508696,0.9358889,0.25834787,0.78129506,-0.31526724,0.51174897,-0.08595471,-0.7278975,0.40032354,-0.9985104,-0.42972037,0.3727654,-0.7559024,0.17169194,0.017696636,0.83510774,0.820726,-0.2085376,0.37209818,-0.5116568,-0.10637451,0.39088595,-0.5416536,-0.8514756,-0.58391535,-0.23022223,-0.83352154,0.2869918,0.36403584,0.5198555,0.0853301,0.9467579,0.83701515,0.04033647,-0.40494975,0.07999132,-0.7149222,-0.72635025,0.6194864,-0.058819454,0.8759433,0.7497775,-0.11721113,-0.9499735,-0.5436438,-0.5316544,0.40307117,-0.5752305,0.13706203,-0.16446048,-0.30175608,0.9691896,-0.92312753,0.081713796,0.63974017,-0.11448926,0.18666716,-0.84477806,-0.79437375,0.94489884,0.32043952,0.13738184,-0.51285005,0.98713315,-0.9113805,-0.38664168,-0.17921251,-0.0075237677,-0.49095505,0.18625495,0.749077,0.7266472,-0.57751125,-0.52934563,-0.102169506,-0.3269218,0.26750594,-0.70911485,-0.31114483,0.39180252,0.83691365,-0.13599889,-0.87206393,0.9775786,0.2826726,0.60035664,-0.10785579,-0.7517521,0.18536487,0.6192739,-0.86149114,-0.9249202,-0.21488263,-0.49347082,0.93717724,0.06748916,-0.518043,-0.4346465,-0.57682556,-0.73716396,0.6247611,0.41217777,0.9716066,0.25425008,0.035149276,0.5563266,0.55221903,0.20154184,0.31263962,0.114093624,0.614684,-0.7328396,-0.5555878,-0.015845317,0.17579214,0.07148951,0.4111518,-0.47885257,-0.9294802,-0.86494315,-0.5919877,0.97361237,0.68583876,0.6415336,-0.34741223,1.0040362,0.7762219,-0.2071941,0.17600733,-0.5401146,0.45562497,0.10099349,0.63334143,0.5480813,-0.39032054,-0.7817605,0.9166923,-0.7161811,0.79172415,-0.31693056,0.5518031,-0.07355388,0.70830107,0.9912637,0.42137533,-0.147262,-0.24791715,-0.15303914,-0.09103123,-1.0019441,0.8577901,-0.31675562,0.77484745,0.1470886,-0.74583226,-0.50451124,0.67662966,0.5077314,-0.9255859,-0.033590358,-0.37758884,-0.7287356,-0.9072582,0.39112958,0.6236788,0.70847917,-0.3947625,-0.076924,0.67773265,-0.64159435,-0.063574634,-0.574406,-0.65283,0.11350456,0.16056374,0.36423457,-0.5579193,0.9900767,0.86209184,0.5710483,-0.2460447,-0.031796664,0.2690707,0.6443142,0.35857788,-0.9721235,0.9747778,-0.82829577,-0.173249,0.9682122,-0.868834,-0.6344718,0.49205157,0.28294766,0.7599839,-0.3560412,0.3293692,-0.05313387,-0.6833271,0.08588462,-0.32091236,0.8526983,-0.30656642,0.5591443,0.57324404,0.6982907,0.8178318,0.90502185,0.80482894,-0.82596713,-0.837958,0.5230814,-0.17265643,0.40721527,-0.704337,0.7243818,0.18972749,0.5183337,0.65103453,-0.35403225,-0.41885468,0.951348,0.70461357,0.6875775,-0.5278015,0.042005762,-0.39571962,-0.1055328,0.12999092,-0.040183682,0.20698549,0.27427736,-0.9280546,0.4302878,0.6864736,-0.40167993,-0.41582042,-0.52431875,-0.41803333,0.03364112,-0.8005531,0.89686006,0.6028765,0.7097671,-0.62226176,-0.78718185,-0.7874461,-0.30237043,0.0922768,-0.024845177,0.8146144,-0.19155353,-0.88610834,0.40257683,-0.8471895,0.4840306,-0.43884218,-0.43891072,0.2217601,-0.73961985,-0.31184992,0.6888994,0.04467772,0.5102538,-0.9717321,-0.40188083,-0.5780088,0.4441005,-0.8001549,0.40751052,-0.7111726,0.5273864,-0.39452878,0.7536074,-0.82149637,0.04985506,-0.2045221,0.22702177,-0.29554155,0.3459522,-0.9416796,0.25154278,-0.23861253,-0.6368213,-0.5379684,-0.36726826,0.7187294,0.41235575,-0.8401494,-0.8898979,-0.6071564,0.15359479,0.5424557,0.6386023,-0.3152296,-0.5162836,-0.085535824,0.035954673,-0.17998794,-0.6677864,-0.84640545,-0.7760651,-0.6797151,0.60640347,0.7808896,-0.18685026,-0.9430747,-0.7552751,0.85713667,0.6998987,-0.21917036,0.84659255,0.10257923,-0.54330176,-0.638057,0.6201908,0.83733577,0.26659352,-0.28179774,-0.6157904,0.93584466,-0.7299703,-0.20037451,0.5040648,0.20603417,-0.09117454,-0.8838013,0.98921466,-0.022235248,-0.704469,0.43374696,0.68007785,-0.8168076,0.7880962,-0.8818293,-0.40734527,-0.43383396,0.57291126,-0.26931724,-0.100906976,0.5825226,-0.44063702,-0.87079984,-0.5302276,0.91915905,-0.68530977,-0.26477882,-0.7135894,0.29755622,-0.6127776,-0.14750953,-0.4531702,-0.083784156,-0.37411076,-0.49710009,-0.66117805,-0.35347632,-0.23245516,0.70007783,-0.072715186,0.26464495,0.8913712,0.86436886,-0.08742962,0.24903026,0.65377367,0.23284122,-0.07843468,-0.21956246,0.024435764,-0.77601147,0.11817284,-0.0074310033,0.28148323,-0.42449197,0.5118157,-0.8959346,0.7827895,0.46003303,-0.071043156,0.098937504,-0.375746,-0.15334068,0.32800224,-0.7770398,-0.096499756,0.7452338,-0.23762661,0.06692278,-0.7738705,-0.40618396,0.3252478,0.9332088,0.8912339,-0.3659993,0.5742952,-0.24882542,0.7754379,0.13340838,0.6079779,-0.22902524,0.31368864,0.55939,0.17292659,0.36514303,0.9068894,-0.16360353,0.50411683,-0.28194648,0.50196785,0.32196197,-0.017954888,0.87403995,-0.39442024,-0.9588298,-0.97688746,0.6326554,-0.14922392,-0.59196126,0.19260027,-0.94762564,-0.45876044,-0.42947745,0.9005363,-0.81400174,-0.07277548,0.46992928,0.18033311,0.944477,0.798361,0.2647731,0.92278725,0.7219084,-0.48712432,0.54325855,0.4079639,-0.75807273,0.9337079,-0.34873453,-0.6343437,0.3334407,-0.49912646,-0.9547433,-0.46671593,0.8925798,0.6562853,-0.8877877,-0.3907328,0.66025543,-0.06568888,0.06583999,-0.54834694,-0.39736685,0.4802415,0.72123253,0.22480662,0.64341193,-0.48546815,-0.48481765,0.48912245,-0.16450176,-0.031461637,-0.41346365,-0.73594,-0.6251405,0.08183306,0.46619892,-0.5050069,-0.25698766,0.8291486,-0.027407572,-0.21895394,0.33054283,-0.20363107,-0.59114254,0.76256794,0.021763396,0.9654395,0.84534055,-0.917874,0.17615964,-0.6794585,0.3174052,-0.81161433,-0.45243666,-0.19054918,-0.73395103,0.091268376,-0.6376208,-0.33108395,0.40450674,0.31249273,0.8058673,-0.59789836,-0.62573385,0.33522427,0.69830775,-0.2565549,0.74161196,-0.91956073,-0.27165347,-0.59603834,0.5431152,0.16356659,-0.1935497,-0.93763775,-0.3452255,-0.9734289,0.77607864,0.11019257,-0.5162489,0.6863663,-0.6433936,-0.62586236,-0.9266543,0.5591667,0.47171345,-0.9831986,-0.53406435,-0.9094919,0.2995466,-0.53766286,0.5618304,-0.87698966,0.6197123,0.42632177,0.07771283,0.36826256,0.868739,0.431028,-0.85396016,0.67771226,0.44852495,-0.8969134,-0.7265339,0.37420276,0.1921382,-0.025504254,0.9235076,-0.12855797,-0.00950829,0.25966334,0.27674085,-0.5990742,-0.8419711,0.049405053,0.3962089,-0.045506317,-0.31753737,-0.1888098,-0.1826282,0.43059012,0.98638946,-0.90221745,-0.02616327,0.0054759975,-0.019470274,-0.5496386,0.3779485,-0.93695354,-0.9875115,0.5795501,-0.47461373,-0.84171665,-0.077701434,-0.97405165,0.06031386,-0.74929905,0.2995652,-0.7986688,-0.491864,0.98193043,-0.76142365,-0.5811635,-0.7054395,0.7575674,0.84159195,-0.10571801,-0.2593795,-0.0036114808,-0.4218081,0.93586075,-0.074691616,0.9739632,-0.5889233,0.5241041,0.04871129,-0.5499182,0.10760306,0.64148057,0.20534763,-0.52389365,-0.5721473,-0.4061483,-0.8320583,0.7928995,-0.4337741,0.6772655,-0.23191272,-0.886396,0.40616998,-0.1967702,0.9333632,-0.58422065,0.6747924,0.6530889,-0.79264903,-0.919458,0.51308906,0.12682746,-0.8838649,-0.25217235,-0.91267306,0.22278342,0.79474,-0.0061440766,-0.4027396,0.38600874,0.38573962,0.8715899,-0.23689789,-0.21680234,-0.93201494,0.53638977,0.53874373,-0.3421491,-0.98460644,0.99566156,0.7768984,-0.6739085,-0.8272325,0.90351015,0.38176566,-0.49742207,-0.37425658,-0.72260284,-0.82147527,-0.93094146,-0.4873008,0.60293925,-0.34321833,-0.27198502,-0.85185754,0.13509922,0.45456097,0.46052805,-0.06453045,0.41396588,-0.22324228,-0.66491437,-0.81286377,1.0205631,0.26979497,-0.67302537,-0.58679086,-0.036341585,0.69386166,-0.46122262,-0.87386554,0.019690562,0.6544298,-0.835425,-0.38421848,0.3598612,0.5864324,0.31560335,0.07100402,-0.57452124,0.5299438,-0.6232729,-0.9002523,0.2425359,-0.19536012,-0.12731098,0.7132441,0.21590309,0.8810502,-0.65908056,0.39294752,-0.27539474,0.9005663,0.54735035,0.23313917,-0.9316906,-0.04540819,0.28945917,0.430516,-0.13012415,-0.07716686,-0.85469615,0.9371272,0.36186546,-0.96199375,-0.10433075,0.6217988,-0.3109148,0.88655335,-0.34771976,-0.834111,0.18907017,-0.20046693,0.521307,-0.5516097,-0.32960066,-0.6100572,-0.8702237,-0.87093264,0.12134214,-0.44541338,0.8454842,0.41899276,0.58336455,-0.20443296,0.9768724,-0.05447611,0.19105591,-0.05670121,-0.3945554,-0.19218668,-0.05635389,-0.38102233,0.76510155,-0.16324887,-0.006967736,0.6044093,0.47799674,0.6695547,0.14486787,-0.9883026,0.9528989,0.59275186,-0.55463374,0.23079792,0.083635956,0.14993347,0.6118825,0.9958356,-0.15285952,0.35239613,-0.47341973,0.9679588,-0.67078346,-0.8503253,-0.8004896,-0.24741125,0.8560249,-0.5395841,-0.65189564,-0.48140627,0.59560454,-0.088681854,0.10504063,0.8077091,0.87842506,0.52109694,0.8231222,-0.8627068,0.45831415,0.5978598,0.096789196,0.22961727,0.21530017,-0.93289375,-0.582397,-0.6666606,0.8472884,-0.41950637,0.7858787,0.092096895,0.19825436,0.7026423,-0.30617854,0.0039801807,0.016246049,-0.22083324,-0.06009951,0.7364588,0.51488316,0.32158738,-0.4201431,-0.17231233,0.41815147,-0.79455894,0.12947051,0.75417477,-0.7627061,-0.11227915,-0.14855365,-0.9670936,0.09009339,0.58122796,0.12635572,-0.08479042,0.72179633,0.75270915,0.48229468,0.19374691,-0.8971673,0.009948288,0.38519725,0.563289,-0.9311556,0.33657986,-0.8522401,0.3625143,0.93141013,-0.99220634,0.78798234,0.13864982,-0.3721145,0.29418507,-0.9117524,-0.014855829,0.16357225,-0.40275303,0.96524256,0.3705864,0.33202374,-0.356405,0.48935267,-0.5602833,0.020852739,-0.54909754,-0.4331826,0.8647051,-0.7852897,-0.22502953,0.39319175,-0.34619284,-0.3788749,0.82876694,0.43798423,-0.5313506,-0.62499803,-0.52247024,-0.45885292,0.030734036,0.23442677,0.6626276,-0.17972103,0.75728816,0.73997885,-0.3536929,0.8310942,-0.12178077,0.050492797,-0.7485272,-0.5988552,-0.47582588,-0.53391445,-0.02407093,0.98476094,0.15907207,0.2577908,-0.3826496,0.08082398,0.71301085,0.22132713,-0.550682,-0.09396707,0.6740217,0.37770507,-0.73129207,-0.44976735,0.81207544,-0.49120203,0.65958023,-0.5574082,-0.24804506,0.2510587,0.6345909,0.27845648,0.7025747,0.5483968,0.53239065,0.24067083,-0.2708739,-0.49085307,0.6664008,-0.5345367,0.2930279,-0.32964146,-0.8593279,-0.27348205,0.5406246,-0.9421102,-0.7005102,-0.7988317,0.9958683,-0.2638546,-0.39650747,-0.09520347,-0.32832998,0.7488892,-0.0013483306,0.09993912,0.5661979,-0.43004394,0.18583481,0.7580436,0.9611167,-0.49304515,-0.32748082,-0.284293,-0.1395896,0.22856674,0.56113,-0.23783681,0.96501964,-0.10305513,-0.111776344,-0.3333487,0.61706585,-0.16362306,-0.7471437,0.39715555,-0.04699375,-0.35695368,-0.73823357,-0.44983917,0.39954156,-0.8818647,-0.011054911,0.78067577,-0.9977842,-0.0022163764,0.5103666,-0.597215,-0.49883255,-0.9519213,-0.72661257,0.76088816,0.93326145,0.31061792,0.37074032,0.9264549,0.2301361,-0.44356558,-0.3397705,0.8953142,-0.15791442,-0.17291033,-0.975667,-0.84206176,0.6097103,0.492965,-0.9134125,0.71532625,0.3686414,-0.0023950753,-0.96496695,0.7544021,0.49655178,0.56251067,0.95956385,0.29405582,0.47295713,-0.07659451,0.3919182,0.64390415,0.98145247,-0.9022158,-0.6012067,0.80129766,-0.31510666,0.760649,-0.07498912,-0.15182276,0.9880498,0.390449,-0.1161591,-0.27206373,-0.7057699,0.35994497,0.544328,-0.22466718,0.17746672,0.26137686,-0.8558039,-0.0860396,-0.52767277,-0.20757023,-0.060911343,-0.94102895,0.29245943,0.95649946,-0.6320219,0.27357596,0.02436077,0.44379896,0.59692883,0.6823415,-0.18477172,-0.9349614,0.49497652,0.42863962,0.38266477,0.52714235,-0.13169585,0.13214026,-0.8051363,-0.9489372,-0.19674973,-0.04329636,0.43918395,-0.7348768,0.4855596,-0.0799855,0.31010893,-0.5111634,0.3678546,-0.90087074,-0.25697812,-0.4912579,0.5870889,-0.6479287,-0.16694802,-0.4097838,0.10145626,-0.24999568,0.5766781,0.21092021,0.15290098,0.9818492,0.87977284,0.11876725,-0.4274794,0.05287014,-0.8137372,-0.7699774,-0.73632663,-0.4294838,-0.00064355775,0.8531317,0.80520856,0.46166795,-0.90472114,-0.6162354,-0.7655182,0.27507073,-0.5869925,0.01448626,-0.9725509,-0.72141045,-0.5631154,-0.6992045,0.88062733,-0.39534488,0.3049531,0.6846916,0.37380987,-0.56282234,-0.5694412,0.19129236,0.56617415,0.26860484,0.15713133,-0.120410085,-0.9673376,0.4213093,0.9291437,0.55050623,-0.5800285,0.6357729,-0.49656278,-0.32833642,0.62369084,-0.593379,-0.60162735,-0.5982411,0.67112094,-0.54043436,-0.8160268,-0.7026325,0.2630605,-0.7448684,0.78928477,0.015892757,-0.717982,-0.08641729,-0.21789883,-0.68851876,-0.26143166,-0.3789303,-0.594436,-0.3092987,-0.6075078,0.48950166,0.86134833,0.1703739,0.36717868,-0.50822353,-0.50558376,0.6534625,-0.34491488,-0.8880547,0.4686134,-0.3143806,-0.4791021,0.6249428,-0.33521545,-0.75545913,0.85759145,0.41364872,-0.34349385,0.65089196,0.2509152,0.09276036,-0.084255256,0.387966,0.6143659,0.48121193,0.5343478,0.18769607,-0.1752028,0.24391755,-0.16850825,-0.42875218,-0.4294949,0.13561319,-0.43169698,0.077440925,-0.79067785,-0.83184016,-0.92916435,0.2918545,0.7552774,-0.39425284,0.9878223,-0.7225844,-0.9095779,0.4532848,0.9129007,-0.67966676,0.46215898,0.81608224,0.27404127,0.13910867,0.5467608,-0.049115907,0.34298187,0.95144707,-0.7719087,-0.65579927,0.09070011,0.57137424,0.43570375,0.52538043,0.90490055,0.007724127,0.7361546,-0.5757465,-0.0364408,-0.93642735,-0.29001778,0.7652217,-0.5980457,0.61612356,0.38450903,-0.8606798,0.81846386,0.15349662,-0.6962665,-0.40366057,-0.568773,0.50865746,0.89456713,0.26520935,-0.95950574,-0.2314898,0.34530956,0.4272701,-0.4831206,0.7319506,0.33057803,-0.39623424,0.41352525,0.13881752,0.916023,-0.9287829,-0.14423935,0.19974312,0.77764034,-0.5472241,-0.42669186,0.8131254,0.4855614,0.44462344,-0.7858336,0.6948764,-0.3807775,-0.29139867,0.36354193,0.4613342,0.42607635,-0.7576554,-0.032854415,-0.759907,0.403321,0.9417319,-0.37181327,0.22924048,-0.77614206,-0.85352933,0.074723,0.55613226,0.5465023,0.18281876,0.84761536,0.79120046,-0.51725566,0.12614256,0.9826173,-0.48428133,-0.023709727,-0.3311659,0.3989549,0.25387144,-0.89776176,0.44040847,-0.5027114,-0.38173342,0.65368515,0.87575585,-0.92187095,-0.28339964,0.16179667,-0.6385065,-0.94990706,0.85145956,0.77190995,0.3649147,0.33298948,-0.7679735,-0.6455368,0.09799169,-0.8494036,0.40990382,0.6270644,0.62872094,-0.91485447,0.38866436,0.21324155,0.47536767,0.74180335,-0.44581616,0.5136833,-0.5950711,-0.24207643,-0.95909154,0.18795948,0.52838206,-0.94100624,0.6362969,-0.9936122,-0.5211654,-0.8341492,-0.16654621,0.7282686,-0.9171425,0.62045884,-0.1678144,-0.15380706,-0.98681194,-0.45436308,-0.6158431,-0.1542265,-0.989308,-0.41713586,-0.21889983,-0.048798855,-0.7428729,0.81155586,-0.32682288,-0.40939543,0.49768388,-0.36157405,-0.47426406,1.0958415,0.86387837,-0.65502626,0.8002788,-0.8819975,0.39377594,0.09886271,-0.43153343,0.20787805,0.72097516,-0.7991537,-0.15912963,-0.81827533,0.74726295,0.49451938,-0.64277893,-0.34545088,0.3891766,0.52149767,0.78724027,-0.11830795,-0.91128176,-0.8595075,-0.3822249,-0.34492838,0.9524279,-0.7678685,-0.5330595,-0.15967904,-0.9489253,0.4674465,0.28938845,0.5645771,0.54651374,0.5311245,0.6094561,-0.4207485,0.44057712,-0.38282382,0.16055952,-0.7664883,-0.92977726,0.005777134,0.76241136,0.191465,0.7109197,0.4750501,0.83854645,-0.15936843,-0.88023597,0.8794284,-0.97546816,0.14459622,-0.3323516,-0.70530945,-0.83359987,-0.3368481,0.39199117,-0.0074168867,0.025412882,0.71946824,0.94089985,0.901667,0.23125334,-0.07561657,0.7431945,0.411366,-0.65341955,0.06689393,-0.35217363,-0.16949315,-0.75660855,0.59390825,0.60491765,0.7945862,0.46046886,0.5961275,0.4025063,0.023074714,-0.7142891,-0.07430197,-0.6692222,-0.92391765,-0.5316534,-0.89586234,-0.25911555,-0.6137781,-0.7328563,-0.0032468378,0.22577493,0.4934314,-0.8596556,0.75030047,0.32539803,-0.6362481,-0.26491833,0.9915326,-0.35843012,-0.88074386,0.5100717,0.60751104,0.70153314,-0.38395727,0.10032401,0.6726909,0.9570879,-0.78258175,-0.4577869,0.7815359,0.76421183,-0.9070941,-0.6186802,-0.66164875,0.30449122,0.21853925,0.46435347,-0.8901689,-0.82499874,-0.16081323,-0.043157503,0.03512896,-0.7613132,-0.7648268,0.08512719,-1.011626,-0.77722996,0.69822407,-0.19594748,-0.7163535,0.69205564,0.7844595,-0.36343938,-0.0056418534,-0.75199074,-0.3117485,0.61670285,0.19951013,0.23537989,0.5988908,0.41821054,0.6056831,-0.8036132,-0.19923663,-0.26431888,-0.6032706,-0.8086761,0.18562469,-0.9179225,-0.941053,0.987714,0.08056349,0.8116651,-0.7381552,-0.2879089,0.087280676,-0.7764106,0.8879519,0.6981152,0.12767664,0.6281103,0.84415215,-0.79356956,0.349142,0.10322949,-0.106064446,-0.10315033,-0.88510305,0.57982355,0.7276678,-0.47738665,-0.9404264,0.35992712,0.8309662,0.72331166,-0.37306166,-0.89270455,-0.75427693,0.8989453,-0.13873889,-0.42379245,-0.73735684,-0.7695893,-0.29893118,-0.40587044,-0.49449846,0.50142723,0.6703287,-0.16586009,0.40779445,0.32568997,0.84703755,-0.8851597,-0.9938377,0.054261632,0.46753177,0.47636834,-0.6517452,-0.40373954,0.1941901,-0.5489127,0.6798589,0.15988225,0.7506655,-0.39033484,-0.7046435,0.0010110812,-0.6521227,0.07269739,-1.009453,0.63020176,0.11344394,-0.92884845,0.0014660187,0.6726822,0.010305883,-0.27503854,0.38363984,-0.489808,0.6110361,0.30872506,-0.39068952,0.11055124,0.5728639,0.6683742,-0.133438,0.78154534,-0.14387141,-0.26449284,0.80993927,0.85250753,-0.23817518,0.67888093,-0.35613838,-0.91325504,-0.3573269,0.7915963,0.9780102,0.49996224,0.58542144,-0.8319454,0.09048743,0.1281362,-0.0973672,0.35619837,-0.00506541,-0.52103424,-0.46654174,0.4616262,0.038041793,0.36444217,0.70979506,0.3908974,-0.93385726,-0.5420295,-0.40978226,0.8876871,0.1846709,-0.57015514,0.82636046,-0.24840134,0.15737373,-0.26393488,0.6011493,-0.54892796,-0.22257277,-0.4897924,-0.8162939,0.034754857,0.7154503,-0.19464257,0.6951155,0.98669106,0.5515826,-0.09867455,-0.8940712,0.13271867,-0.11937157,-0.7274861,0.8389701,0.17175974,0.4315977,0.72593623,-0.6711116,0.14368883,-0.6980574,0.44662464,0.31685373,0.49593484,-0.9275433,-0.30602545,-0.068548635,-1.0013855,-0.7752787,0.51265025,0.2930902,0.54081154,-0.25763333,-0.2624798,0.7002835,-0.124901466,-0.48705906,0.54193157,-0.5709226,-0.11254594,0.22280891,-0.0160786,0.3325779,0.71846217,0.60921335,-0.27318528,-0.05215311,-0.2579137,0.5305299,-0.60849285,-0.9514164,0.70706505,-0.41445518,0.058857586,0.62360203,-0.7989481,0.635173,0.34961528,0.81092477,-0.643668,0.53141505,-0.51246494,-0.4826888,-0.28319564,0.3250374,-0.6505343,-0.16632316,0.3773901,-0.68846226,0.7445226,-0.66688013,0.9444633,-0.54971313,-0.7453571,0.0012203753,0.3111038,-0.8192273,-0.74152946,0.62542355,0.44445622,-0.08534209,-0.92438126,0.21146077,-0.26919916,0.77149606,0.73936373,-0.6862746,-0.7682146,-0.6615839,0.5263996,0.16874243,-0.077471696,-0.9614483,-0.11873631,-1.0098517,0.07050281,-0.39516664,-0.68556833,0.3947923,0.79677963,-0.68994844,-0.9953816,-0.5083735,0.9497162,-0.89226496,-0.084985934,0.7419594,-0.855831,-0.09864072,0.7183703,0.79612833,-0.4362804,0.47016695,-0.710732,0.8040256,-0.46368226,0.76032525,0.37918034,0.15278156,0.32177806,0.48713505,0.86541003,-0.586572,-0.85106915,-0.85425574,0.85420406,0.49212438,0.45847526,-0.36809656,-0.55013233,0.2160551,0.5946576,-0.016957631,0.16212697,-0.501847,-0.8192112,0.6752471,-0.61180276,-0.27573445,0.13018866,-0.81954604,0.69171137,0.48811036,-0.39881828,-0.96801585,0.32343453,-0.5307914,0.97660285,0.057078823,-0.7423327,0.7897097,0.81817615,0.80857754,-0.6409103,0.8710857,0.99298495,0.9451341,-0.6967363,-0.22441928,0.14251177,0.7046636,-0.82817125,0.43244615,-0.3753795,-0.28200334,0.21073046,-0.5596965,-0.5224153,0.119160414,-0.41449097,0.87520915,-0.58552766,0.7033436,0.5298919,-0.8306031,-0.7531146,0.30172867,-0.58758134,-0.5067205,-0.24083765,0.73746675,0.53655386,0.46428367,-0.44966948,-0.20049408,0.16007213,-0.053489745,0.71411693,0.9774653,0.79950655,0.54051757,0.8136363,0.8752045,-0.33190924,0.9564509,0.92832536,0.23384523,-0.0715299,0.009411604,-0.34595403,-0.58314306,0.7015728,0.053139057,-0.14639083,0.46308264,-0.8987878,0.14295991,-0.083856836,0.87727994,-0.3916433,0.82587755,-0.3788612,-0.45901838,0.36748078,0.6690771,-0.20593493,0.5661098,-0.231104,-0.4308757,-0.84743035,-0.9694026,-0.15506263,0.86366785,-0.30991402,0.39886233,0.47038382,0.042003084,0.36166784,0.2165372,0.90035355,-0.7205655,-0.1007516,0.9831668,0.7179082,0.5478767,0.32855698,0.64023894,-0.43117568,-0.53048617,0.21707027,0.61143506,-0.83851355,-0.039299916,-0.24436256,0.51250154,0.5223283,-0.69201726,0.6741523,0.07239428,-0.27751595,0.5482402,0.5977482,-0.21905822,-0.2118558,-0.734153,-0.9548974,0.3704647,0.84130067,0.6117703,-0.6053398,0.37136665,0.14145564,-0.70422965,0.027665807,0.34226653,0.24757269,-0.27251127,0.839561,0.6221896,-0.42851207,-1.0595883,-0.5753444,-0.23541364,0.644939,0.87640595,0.94526756,-0.8961245,-0.95436394,-0.88237786,0.95027596,-0.7511325,-0.32648602,0.31176227,-0.90379405,-0.84971654,0.05027161,-0.3015963,-0.092859,0.8566293,-0.56979483,0.17535794,-0.72272515,-0.29198843,-0.070286825,-0.4879204,-0.77099663,0.9122777,-0.23333284,-0.28340164,-0.4902628,0.13007794,-0.102516755,-0.080772094,0.05195634,-0.18221237,-0.85825115,0.015530134,0.3424443,-0.22928055,0.35190788,-0.6923579,-0.45213273,-0.35897803,0.88092023,-0.15038499,-0.6962381,-0.5188368,-0.6379082,0.050345413,-0.4824724,0.19752586,0.23710096,-0.9658966,0.7566465,-0.7474612,-0.6841879,0.49404654,-0.9877049,-0.39132082,0.6931956,-0.39251155,0.38451773,-0.44034922,0.08995123,0.7816988,0.34188545,0.28410763,0.96307135,0.44196314,-0.84386307,0.64567244,-0.7012954,0.78815603,0.39578953,0.5496913,0.9581921,0.20838597,0.49266466,0.034341954,-0.11712512,-0.25755388,-0.33715087,0.37375796,0.14253707,-0.4886782,0.022407062,-0.23699322,0.8185211,-0.034747534,0.54756767,-0.33880883,-0.19819853,-0.027878614,0.8571654,0.25472015,0.9250123,0.04753218,0.71329796,0.31775522,0.7229833,0.7180704,0.15795495,0.6602443,0.35843104,0.6125039,0.24276526,-0.03517091,0.46399465,0.29607648,0.92298603,-0.50291187,0.5124832,0.5321591,-0.55034786,-1.00545,-0.40004325,0.40530995,0.49289086,-0.42728645,-0.8584002,-0.4415206,-0.75806624,-0.57932335,0.8137458,-0.84356034,-0.9745004,-0.06548413,0.24716222,-0.26549777,-0.0052839057,-0.73571014,-0.5673039,-0.9516188,0.45220882,0.14089304,-0.08015473,-0.21336913,-0.8904152,-0.7567932,-0.5109948,0.95842,-0.10015648,0.30479398,0.4885038,0.14891826,-0.28679064,-0.5856433,-0.7763026,0.7087005,0.20990117,-0.025888838,0.42670184,0.6794931,0.20792168,0.6292594,-0.79235035,0.707598,-0.5000895,0.3900446,0.8832025,0.87682927,0.50978374,-0.09552295,0.61853164,-1.0170419,0.5957063,0.2463526,0.34113982,-0.7865633,0.5365051,0.2680733,-0.5220459,0.88594323,-0.14692794,-0.7313199,-0.47864023,-0.99913335,-0.12012822,0.3727539,0.3365836,-0.7404847,-0.2664292,0.6200313,0.061690412,-0.50586945,-0.77447814,-0.36208662,0.52131885,0.3357704,0.853758,0.0887817,-0.4752541,0.8985657,-0.45486715,-1.0370337,0.46929193,-0.1326435,0.058427278,-0.09312134,0.47700748,-0.42030865,0.38561574,-0.16739285,-0.9693818,0.33268633,0.9209536,-0.7942638,0.88620996,0.752305,0.4596717,-0.77490026,-0.22713214,0.10905644,0.8322073,0.67835283,0.7503898,0.7746744,-0.15516682,-0.0678923,0.64055485,-0.9441298,-0.08345076,0.39076504,-0.6203768,-0.7023013,0.52186936,0.5803555,0.6838721,-0.88379985,-0.50557303,0.48711938,0.5902802,